SVM-light Version V6.02
0 # kernel type
3 # kernel parameter -d 
1 # kernel parameter -g 
1 # kernel parameter -s 
1 # kernel parameter -r 
empty# kernel parameter -u 
60 # highest feature index 
461 # number of training documents 
395 # number of support vectors plus 1 
-0.026655893 # threshold b, each following line is a SV (starting with alpha*y)
-0.00024010337909037612 1:-2.6700001 2:1.77 3:0.41 4:2.01 5:0.83999997 6:-0.19 7:1.13 8:0.15000001 9:-0.98000002 10:3.5799999 11:5.5900002 12:-3.8 13:1.75 14:-3.45 15:-0.77999997 16:1.9 17:-3.6400001 18:2.21 19:-2.6199999 20:-0.88999999 21:14.63 22:-18.93 23:-15.35 24:3.23 25:13.23 26:9.2799997 27:1.71 28:-0.25999999 29:17.940001 30:-0.91000003 31:2.99 32:-8.5900002 33:-10.88 34:22 35:-13.2 36:10.09 37:-11.19 38:15.95 39:-18.66 40:-22 41:22 42:-1.6 43:18.309999 44:-12.19 45:0 46:17.16 47:-0.83999997 48:-2.51 49:1.9 50:19.110001 51:-19.75 52:-3.6600001 53:-15.26 54:-22 55:11.95 56:-17.190001 57:-11.05 58:15.49 59:16.32 60:-16.41 #
-0.00024010337909037612 1:-2.3099999 2:1.76 3:0.029999999 4:1.98 5:-0.81 6:1.47 7:-2.3199999 8:1.65 9:-0.83999997 10:1.02 11:0.56999999 12:2.26 13:8.4799995 14:-0.63 15:-2.8800001 16:-1.42 17:-0.33000001 18:-2 19:5.04 20:1.7 21:1.1900001 22:-1.59 23:-1.66 24:1.3 25:6.8000002 26:0.47999999 27:2.05 28:-8.1099997 29:-4.4099998 30:-0.88999999 31:2 32:4.9699998 33:-6.6599998 34:-0.63 35:1.3 36:-3.53 37:3.24 38:2 39:-1.84 40:6 41:-4.46 42:-0.43000001 43:-1.45 44:0.73000002 45:-4.3899999 46:1.36 47:4.5500002 48:-1.95 49:-5.3099999 50:-2 51:0 52:4.5999999 53:-1.63 54:-2.4200001 55:-5.4400001 56:-8.5900002 57:5.0500002 58:5.23 59:-1.23 60:2.9100001 #
-0.00024010337909037612 1:-1.79 2:0.94999999 3:0.58999997 4:2.1600001 5:1.59 6:0.039999999 7:1.84 8:-0.050000001 9:-1.05 10:-3.8 11:0.88 12:-0.13 13:1.0700001 14:0.16 15:-0.38 16:1.7 17:4.25 18:6.27 19:1.2 20:-1 21:-6.0799999 22:-3.77 23:-3.6900001 24:3.97 25:2.9300001 26:-2.95 27:-3.4300001 28:0.20999999 29:-1.04 30:-0.54000002 31:-5.6799998 32:-0.40000001 33:7.1100001 34:-5.3499999 35:4.0100002 36:-8.5500002 37:4.5100002 38:3.75 39:0.88 40:8 41:-0.76999998 42:-1.38 43:0.50999999 44:0.66000003 45:-8.8599997 46:2.1700001 47:8.5900002 48:-3.6800001 49:-8 50:8 51:3.9100001 52:-2.77 53:-0.15000001 54:2.53 56:-1.6 57:7.2199998 59:-5.02 60:-6.46 #
-0.00024010337909037612 1:-1.78 2:0.91000003 3:-0.2 4:2.22 5:1.27 6:0.02 7:1.61 8:-0.47 9:-0.88999999 10:3.8900001 11:10.52 12:-3.8900001 13:1.24 14:-10.52 15:-0.52999997 16:2.4300001 17:-3.8499999 18:2 19:-3.1500001 20:-1 21:5.4699998 22:-8 23:9.1999998 24:2.99 25:-3.75 26:4.6399999 27:1.79 28:0.18000001 29:20.049999 30:-0.43000001 31:4.7800002 32:-19.84 33:-3.6300001 34:18.98 35:-18.940001 36:-7.0999999 37:14.13 38:22.4 39:-22.41 40:16.299999 41:18.58 42:-1.85 43:8 44:-14.3 45:-15.75 46:0 47:-1.77 48:-2.46 49:2.2 50:20.43 51:-17.73 52:-5.29 53:-21.68 54:-18.73 55:-8 56:11.07 57:-11.22 58:8 59:18.48 60:-8.9799995 #
-0.00024010337909037612 1:-2.03 2:1.1900001 3:0.41999999 4:1.98 5:1.27 6:0.07 7:1.8099999 8:0.050000001 9:-0.94999999 10:0.27000001 11:-1.79 12:0.77999997 13:-0.46000001 14:0.75999999 15:0.090000004 16:-2.02 17:-0.13 18:4.3699999 19:-3.4200001 20:-0.91000003 21:-8.3299999 22:-4.2199998 23:7.77 24:-6.2199998 25:-7.3099999 26:6.8299999 27:7.1500001 28:5.5700002 29:0.47999999 30:2.3 31:-21.9 32:-12.46 33:-7.54 34:4.4099998 35:-7.8600001 36:-4.4499998 37:-5.1500001 38:14.97 39:-6.3600001 40:-44 42:-1.39 43:5.3899999 44:1.12 46:-0.2 47:8.7399998 48:8.1400003 49:-5.2800002 50:44 51:23.18 52:-4.9200001 53:2.3900001 54:5.6599998 55:4.98 56:-23.91 57:-3.6900001 58:44 59:3.28 60:6.02 #
0.00024010337909037612 1:0.88 2:7.3699999 3:5.1900001 4:0.15000001 5:4.1599998 6:-2.1500001 7:9.9799995 8:-7.46 9:7.6300001 10:-6.1399999 11:10.27 12:-9.79 13:8.6099997 14:-10.74 15:11.16 16:-12.79 17:14.48 18:-14.32 19:17.549999 20:-19.440001 21:17.16 22:-17.799999 23:14.12 24:-13.71 25:10.88 26:-11.73 27:10.45 28:-18.049999 29:11.68 30:-15.5 31:13.41 32:-21.23 33:19.860001 34:-19.77 35:18.620001 36:-22.76 37:24.85 38:-27.77 39:35.68 40:-42.66 41:41.16 42:-41.950001 43:42.939999 44:-51.310001 45:46.02 46:-45.639999 47:43.689999 #
2.1474766780752128e-005 1:-7.8699999 2:1.52 3:-5.75 4:-0.80000001 5:-0.63 6:-1.3099999 7:-2.8399999 8:-2.28 9:-2 10:-2.3399999 11:4.7199998 12:-5.6300001 13:0.79000002 14:-4.21 15:2.0899999 16:-9.8299999 17:18.58 18:-4.5799999 19:9.0500002 20:-3.0899999 21:1.24 22:-1.9 23:-10.84 24:31.700001 25:4.9499998 26:-14 27:-14.73 28:-13.86 29:21.42 30:-29.799999 31:-29.41 32:17.780001 33:-10.37 34:27.99 35:-24.059999 36:13.42 37:-30.74 38:27.48 39:28.940001 40:12.87 41:17.5 42:4.98 43:-3.1800001 44:3.8599999 45:-11.64 46:3.53 47:15.36 48:4.1599998 49:-12.2 50:28.66 51:-30.209999 52:29.469999 53:-30.08 54:-33.34 55:32.48 56:-31.32 57:34.619999 58:-36 59:36 #
0.00024010337909037612 1:-3.5 2:4.75 3:-2.9100001 4:1.95 5:-4.5900002 6:-26.379999 7:-1.6799999 8:4.3499999 9:-4.98 10:-19.129999 11:-20.48 12:-21.389999 13:0.2 14:-0.47 15:-1.42 16:2.95 17:-28.52 18:-4.7600002 19:-0.93000001 20:0.12 21:-3.27 22:7.8000002 23:3.79 24:-3.48 25:-0.83999997 26:3.52 27:-0.64999998 28:-3.51 29:2.5699999 30:3.77 31:22.35 32:-4.8699999 33:2.71 34:-4.8099999 35:-3.54 36:5.1599998 37:29.77 38:24 39:-27.799999 40:-0.16 41:1.8099999 42:-5.73 43:-10.3 44:12.19 45:25.73 46:-1.91 47:-4.8000002 48:5.1999998 50:-24 51:24.99 52:3.4100001 53:20.73 54:3.4100001 55:24 56:28.030001 57:-1.33 58:-23.99 59:2.7 60:2.8599999 #
0.00024010337909037612 1:-3.01 2:5.1100001 3:-2.8399999 4:2.03 5:-4.8000002 6:10.68 7:-1.89 8:4.2800002 9:-5.5700002 10:-14 11:-10.17 12:14 13:0.95999998 14:-0.47999999 15:-1.15 16:2.8399999 17:13.23 18:-5.3800001 19:-1.24 20:-0.050000001 21:-3.7 22:7.79 23:3.8199999 24:-3.23 25:-0.63 26:3.8800001 27:-0.23 28:-3.5899999 29:3.23 30:3.55 31:-22.84 32:-4.4899998 33:2.8199999 34:-5.04 35:-3.73 36:4.9299998 37:22.559999 38:14 39:-12.69 40:-0.41999999 41:2 42:-5.1700001 43:-10.59 44:11.44 45:21.49 46:-2.0799999 47:-4.6599998 48:5.3899999 49:-22.190001 50:20.77 51:-22.65 52:4.0900002 53:0 54:3.53 55:-15.68 56:-13.85 57:-1.41 58:10.84 59:2.8399999 60:3.53 #
0.00024010337909037612 1:-1.98 2:0.94999999 3:-0.16 4:2.3 5:0.76999998 6:-0.27000001 7:1.35 8:-0.02 9:-1.5700001 10:3.9100001 11:7.1399999 12:-3.27 13:1.63 14:-0.75 15:-0.16 16:1.91 17:-3.9400001 18:2.51 19:-2.8199999 20:-0.66000003 21:0.66000003 22:-7.0999999 23:1.63 24:3.52 25:-10.54 26:-2.0899999 27:1.91 28:-0.36000001 29:0.31 30:-0.74000001 31:3.6600001 32:-1.09 33:2.6400001 34:-5.6100001 35:8.2299995 36:5.8099999 37:-2.1800001 38:11.1 39:-5.6700001 40:1.4 41:1.89 42:-1.29 43:0.76999998 44:-9.7299995 45:3.1700001 46:1.13 47:-1.7 48:-2.8299999 49:2.0899999 50:0 51:6.0700002 52:-3.6500001 53:-1.95 54:10.48 55:0 56:0 57:0 58:0 59:-8.5900002 60:-2.21 #
-0.00023230146442511379 1:-7.6500001 2:1.53 3:-5.5599999 4:-1.24 5:0 6:-0.87 7:-2.45 8:-1.6 9:8.9899998 10:0.23999999 11:10.79 12:-6.7800002 13:0.38 14:-1.52 15:-2.3 16:-9.8500004 17:21.07 18:1 19:1.38 20:-5.6900001 21:0.86000001 22:23.620001 23:-22.049999 24:-25.1 25:-7.9099998 26:-8.1899996 27:12.17 28:-4.2600002 29:-10.06 30:5.52 31:32.23 32:-11.29 33:12.55 34:-21.16 35:26.85 36:27.16 37:-24.9 40:-22.4 41:22.860001 42:-8.6000004 43:8.4499998 44:-28.780001 45:23.77 46:-22.74 47:-13.88 48:9.7399998 49:18.040001 50:0 51:-36 52:11.67 53:-14.88 54:25.299999 55:31.389999 56:-29.98 57:29.049999 58:-26.59 59:23.82 60:-24.129999 #
-0.00024010337909037612 1:0.88 2:7.3699999 3:5.1900001 4:0.15000001 5:4.1599998 6:-2.1500001 7:9.9799995 8:-7.46 9:7.6300001 10:-6.1399999 11:10.27 12:-9.79 13:8.6099997 14:-10.74 15:11.16 16:-12.79 17:14.48 18:-14.32 19:17.549999 20:-19.440001 21:17.16 22:-17.799999 23:14.12 24:-13.71 25:10.88 26:-11.73 27:10.45 28:-18.049999 29:11.68 30:-15.5 31:13.41 32:-21.23 33:19.860001 34:-19.77 35:18.620001 36:-22.76 37:24.85 38:-27.77 39:35.68 40:-42.66 41:41.16 42:-41.950001 43:42.939999 44:-51.310001 45:46.02 46:-45.639999 47:43.689999 #
-0.00024010337909037612 1:-3.0899999 2:4.52 3:9.9499998 4:2.3399999 5:-4.3800001 6:7.1599998 7:9.9300003 8:4.23 9:-5.7199998 10:-10.02 11:-9.3599997 13:0.5 14:-0.30000001 15:-1.47 16:2.3399999 17:-12.29 18:-0.76999998 19:4.71 20:0.46000001 21:-3.99 22:-16.799999 23:4.4200001 24:-3.04 25:-0.16 26:3.8800001 27:-0.58999997 28:-1.9299999 29:-4.6999998 30:4.0500002 32:-4.3000002 33:2.4200001 34:-5.0300002 35:-3.6400001 36:4.8699999 37:35.970001 39:-4.9499998 40:-0.80000001 41:1.78 42:-5.27 45:34.23 46:13.67 47:-4.8600001 48:5.6399999 51:-27.780001 52:-8.8100004 54:3.3099999 56:21.139999 57:-1.3200001 58:-35.459999 59:2.53 60:10.46 #
-0.0002098187515937283 1:6.57616 2:8.6233349 3:-8.3032856 4:-9.2425718 5:-10.292474 6:-3.6888795 7:-8.470726 8:-8.5964174 9:6.6333184 10:-9.2159348 11:-9.3168955 12:-10.581955 13:-6.2372079 14:9.1605711 15:10.28534 16:0 17:6.5254807 18:8.1568136 19:-9.0867386 20:8.333395 21:8.1343594 22:-9.2573185 23:-9.321146 24:9.3248005 25:-8.0863104 26:-8.0501785 27:-10.287953 28:9.2169218 29:-9.1839314 30:-6.2915692 31:4.8385758 32:9.7183027 33:-10.264435 34:10.064932 35:10.327302 36:-8.1860609 37:-9.2634277 38:9.3737974 39:7.1626787 40:9.3272171 41:-9.6994276 42:-9.6998663 43:-8.1086226 44:9.2011185 45:10.578716 46:8.3544798 47:10.288317 48:10.28289 49:-10.733158 50:-10.061623 51:8.7198305 52:10.612488 53:-8.7171316 54:9.287981 55:8.592164 56:8.7354498 57:-10.334108 58:7.2959895 59:-10.290798 60:9.8669014 #
0.00024010337909037612 1:-9.5548258 2:9.6373043 3:-8.3858433 4:8.5003138 5:-8.302969 6:6.5366426 7:8.6643877 8:6.3908505 9:6.6333184 10:4.4998097 11:6.5712829 12:-6.7648134 13:-9.6234474 14:6.1444898 15:-9.5717735 16:6.5118642 17:-8.3666849 18:-6.0271125 19:8.4650955 20:9.6086979 21:8.3766785 22:4.4998097 23:-9.0188818 24:5.3386817 25:-8.4346333 26:8.3326635 27:-8.5668364 28:9.6108465 29:-8.5622292 30:6.6270523 31:-8.396162 32:8.6144485 33:-8.3618326 34:9.6523275 35:-9.5808878 36:-8.2992563 37:-8.6283979 38:9.9245033 39:-10.585541 40:-6.6148472 41:-8.3793812 42:-6.1970863 43:9.6276302 44:9.2414713 45:-7.7991037 46:6.3482466 47:-9.5859823 48:-9.5804815 49:-9.551877 50:9.4330225 51:5.3661513 52:-10.382101 53:5.5067267 54:8.552516 55:-10.243947 56:8.5838442 57:6.4413371 58:10.37554 59:-8.4508429 60:8.5577717 #
0.00024010337909037612 1:-1.7 2:1.52 3:-0.31 4:2.25 5:1.13 6:-0.72000003 7:1.47 8:-0.38999999 9:-1.49 10:3.75 11:5.3600001 12:-3.53 13:1.12 14:-2.6300001 15:-0.19 16:2.1800001 17:-3.9200001 18:1.98 19:-2.97 20:-0.70999998 22:-19.280001 23:18.280001 24:3.23 27:1.88 28:0.43000001 29:17.469999 30:-0.34 31:3.1099999 34:-17.549999 35:13.65 36:-19.07 37:10 38:17.379999 39:-18.700001 42:-1.41 43:18.440001 44:-12.48 45:-10 46:17.110001 47:-1.1799999 48:-2.4400001 49:1.98 50:19.52 51:-19.27 52:-3.55 53:-16.450001 54:-13.04 55:10 56:10 57:-10 58:-10 59:18.190001 60:-16.620001 #
0.00024010337909037612 1:8.7938299 2:-8.3913031 3:8.5585032 4:8.5716486 5:6.6333184 6:9.4836817 7:-9.4919243 8:8.3858433 9:8.5516043 10:-9.0668421 11:9.0611258 12:8.0905466 13:-8.3243713 14:8.8328133 15:-8.2346659 16:8.5969877 17:-8.3495369 18:8.8157654 19:8.2672787 20:6.4243288 21:-8.4710712 22:-9.5003033 23:8.3948717 24:9.0912752 25:8.5377493 26:-6.1366467 27:-6.2344108 28:-7.8750405 29:9.0333443 30:-8.1369934 31:8.917922 32:-8.4080057 33:-8.8554993 34:-8.1896648 35:-8.6975727 36:-8.3487358 37:-8.0450344 38:10.301231 39:-10.390454 40:-9.0552397 41:7.0073352 42:-8.3338118 43:-8.8530645 44:8.7820044 45:-7.2015133 46:9.5312738 47:-9.0628996 48:-7.4051919 49:-7.1354427 50:8.8315954 51:-9.5204954 52:8.327858 53:7.0039897 54:-9.0642853 55:-9.9920673 56:-9.5449457 57:-9.954257 58:10.640591 59:-8.8647385 60:8.4919424 #
0.00024010337909037612 1:6.6333184 2:-8.3913031 3:9.1307011 4:9.1874008 5:8.7938299 6:-9.1291161 7:-8.2251329 8:8.3858433 9:-9.0154333 10:9.0926447 11:-8.2909317 12:-9.5315886 13:-9.5288544 14:-10.583615 15:-5.5959368 16:8.5407848 17:-9.084095 18:10.22012 19:-9.7869949 20:9.5435905 21:-9.0508366 22:10.262436 23:9.0755444 24:-9.0883169 25:-9.1097689 26:9.496603 27:-9.0722275 28:-10.019783 29:9.283124 30:-10.068967 31:6.8795156 32:-8.4279909 33:-4.3170333 34:9.4644575 35:-10.249943 36:-5.5893574 37:-10.252304 38:10.589081 39:-9.5551729 40:8.5873909 41:-8.5039635 42:-9.1712656 43:-9.4899216 44:9.5152168 45:-9.2128344 46:9.028944 47:6.3279366 48:-10.227574 49:-9.5758238 50:10.090745 51:4.4389396 52:10.052359 53:9.1297293 54:-9.0387468 55:-10.240642 56:10.033593 57:10.480314 58:7.4295206 59:-9.5065498 60:8.3441067 #
0.00024010337909037612 1:-9.3818674 2:-9.8448849 3:-8.1760798 4:8.6887493 5:-8.2209864 6:-9.8131819 7:-10.076354 8:-8.3824787 9:6.6333184 10:10.325289 11:6.2115264 12:9.6961393 13:-9.8227272 14:-9.6738329 15:-5.4571614 16:0 17:-9.8263769 18:9.5502043 19:9.8254356 20:9.7958088 21:6.6463904 22:8.6563749 23:8.2996511 24:-8.3638725 25:-8.6096888 26:9.9401283 27:9.6902447 28:9.8907948 29:-9.0171814 30:3.6537445 31:9.5147381 32:-9.9417915 33:-10.307371 34:9.8024778 35:-9.817812 36:-8.2303858 37:-9.5215302 38:9.693181 39:-9.0757399 40:8.1896648 41:-9.8272896 42:-6.4287701 43:-9.5081997 44:10.055859 45:-9.2427807 46:9.8115673 47:-9.8103533 48:-9.6915007 49:-8.5941925 50:9.3859024 51:-10.049634 52:9.6847544 53:-9.0109873 54:9.8064709 55:9.5678968 56:9.8671951 57:-10.231837 58:-6.6217384 59:-9.8160601 60:9.5326996 #
-8.4738008772958543e-005 1:-7.5100002 2:-5.0700002 3:-0.63 4:-5.5900002 5:6.1999998 6:4.7199998 7:7.0500002 8:-11.42 9:-13.95 10:-9.1999998 11:-10.38 12:28.09 13:-10.98 14:19.98 15:12.64 16:10.67 17:-10.77 18:16.16 19:-13.46 20:23.48 21:11.77 22:25.809999 23:19.66 24:-19.129999 25:-19.610001 26:12.87 27:28.34 28:-52.5 29:15.82 30:16.48 31:46.599998 32:29.299999 33:-17.280001 34:-24.93 38:36.310001 39:-41.560001 42:-14.23 43:-23.32 44:47.740002 47:21.57 48:-15.31 49:-51.93 50:50.59 51:-27.1 52:-30.23 53:-29.209999 55:-47.59 58:50.380001 60:-20.82 #
-0.00024010337909037612 1:-8.3110676 2:7.1115475 3:-8.3858433 4:8.418396 5:-8.2236452 6:-9.1201859 7:-8.3013077 8:8.4340639 9:6.6333184 10:8.2955008 11:6.5712829 12:7.2457495 13:-6.4050407 14:-10.264885 15:-8.1581898 16:2.3025851 17:-8.4104862 18:-10.536995 19:10.545778 20:-8.3639593 21:9.6776676 22:-8.3637629 23:7.21877 24:8.4935169 25:-9.2560282 26:-6.4704547 27:-7.0131073 28:6.5792441 29:6.6571589 30:8.3450212 31:-8.4828615 32:-9.5927277 33:9.6734505 34:-6.4332557 35:-9.47223 36:-8.2875147 37:-8.6018448 38:10.624594 39:10.495732 40:10.295436 41:-9.8900099 42:-4.6868033 43:-8.1484356 44:6.678309 45:-9.8098783 46:8.4962349 47:-9.0763168 48:-8.5088196 49:-7.0010037 50:9.2290621 51:9.9024067 52:8.266715 53:9.0064907 54:9.1004858 55:-10.475938 56:10.407935 57:-9.6427727 58:10.612953 59:9.2708912 60:6.4058638 #
-0.00024010337909037612 1:-8.300806 2:-9.5797081 3:-8.3858433 4:8.4889326 5:-8.5530434 6:9.3140907 7:-8.474721 8:8.5440559 9:6.6333184 10:8.3790426 11:6.5712829 12:-10.11095 13:-9.5926971 14:9.3493223 15:-6.9698524 16:8.5220852 17:-8.1319666 18:-10.109495 19:-8.274725 20:-9.0760622 21:-8.4816113 22:8.4892683 23:9.6030378 24:8.3367767 25:-6.0169148 26:-9.2875757 27:-9.076911 28:8.3798628 29:6.4518018 30:-8.5688305 31:-8.4837036 32:9.1133499 33:-8.2955914 34:-8.5129318 35:-9.4997349 36:-8.1522455 37:-9.5172663 38:9.1378613 39:-9.1052103 40:9.0217323 41:8.7487116 42:-6.9234691 43:6.903439 44:9.8735867 45:9.9039516 46:-8.347393 47:6.8767219 48:-8.2647104 49:-5.1503234 50:9.2283621 51:8.431613 52:9.1849957 53:8.6551418 54:-5.0472131 55:-6.4002995 56:8.5686159 57:-9.6379805 58:10.63028 59:-8.4227495 60:8.3160982 #
0.00024010337909037612 1:6.6333184 2:-8.3913031 3:9.7092409 4:8.557662 5:8.7938299 6:10.317717 7:-8.3253098 8:8.3858433 9:-10.075779 10:-9.8759985 11:9.6568336 12:10.37291 13:8.6374817 14:-10.100636 15:6.2115264 16:8.6967201 17:-8.5203152 18:10.100131 19:10.336962 20:9.106678 21:-10.369173 22:9.6481714 23:10.128538 24:9.6151819 25:9.604475 26:-10.337907 27:-9.054183 28:-10.344312 29:10.521545 30:-8.2556629 31:-10.488931 32:10.323363 33:-8.4832964 34:10.146111 35:-10.153287 36:10.334224 37:-10.318486 38:-9.6944523 39:1.9278916 40:-10.120132 41:-10.310042 42:-9.1743803 43:-10.368907 44:-9.6379566 45:-8.8704367 46:10.358101 47:9.10818 48:8.3808289 49:-9.1967592 50:10.086247 51:-9.1521358 52:8.5451365 53:9.617013 54:-9.6098824 55:-9.8959064 56:-10.644664 57:9.2583904 58:5.0225968 59:-10.340125 60:10.334909 #
-0.00018750102193918394 1:-7.6300001 2:-5.1700001 3:-0.2 4:-6.2199998 5:6.8299999 6:4.8200002 7:6.6300001 8:-15.02 9:-9.5799999 10:-9.6400003 11:-12.63 12:14.27 13:-17.48 14:-18.860001 16:18.74 17:10.98 20:16.280001 21:-18.629999 22:-17.48 23:67.339996 24:-18.629999 30:-16.73 35:23.940001 38:72.690002 43:18.84 44:20.48 46:-13.35 53:-68.599998 54:-38.099998 55:18.629999 56:-70.080002 57:-45.900002 58:54.73 59:42.139999 60:18.959999 #
0.00024010337909037612 1:-3.02 2:4.3499999 3:2.8399999 4:2.3 5:-3.8800001 6:2.5799999 7:-2.5899999 8:4.6500001 9:-5.54 10:0.46000001 11:4.04 12:-1.01 13:0.31999999 14:5.3299999 15:-1.02 16:2.77 17:-0.19 18:-17.07 19:-17.07 20:2.05 21:-4.02 22:-3.75 23:4.5500002 24:-3.03 25:-0.23 26:-3.23 27:8.4899998 28:19.67 29:-5.6900001 30:2.1199999 31:18.65 32:-12.22 33:14.85 34:-13.15 35:-14 36:-5.54 37:12.8 38:-18.02 39:17.049999 40:-17.01 41:-14 42:3.98 43:4.54 44:-18.16 45:21.049999 46:-2.8 47:-4.6599998 48:-4.73 49:2.72 50:-18.02 51:0 52:16.48 53:17.85 54:14 55:-16.190001 56:-2.95 57:18.34 58:15.34 59:-17.32 60:-1.25 #
0.00024010337909037612 1:-7.5100002 2:-5.0900002 3:-0.63 4:-0.94999999 5:-2.51 6:-0.40000001 7:-2.48 8:-3.3699999 9:-0.050000001 10:-2.77 11:-2.23 12:7.1199999 13:-6.3000002 14:-3.52 15:0.16 16:-1.67 17:5.04 18:-7.0999999 19:-7.25 20:8.5500002 21:-0.34999999 22:0.99000001 23:-2.1500001 24:2.3699999 25:-6.52 26:-1.02 27:-5.7600002 28:-4.6799998 29:8.46 30:-0.17 31:2.95 32:4.6799998 33:-0.34999999 34:2.3 35:5.9000001 36:8.6999998 37:35.200001 38:0 39:20 40:0.25 41:6.1100001 42:0.88 43:-0.2 44:7.3299999 45:18.540001 46:5.96 47:1.45 48:0.54000002 49:9.6300001 50:-20 51:2.6900001 52:-1.22 53:-6.4400001 54:-4.5500002 55:-5.96 56:9.29 57:-11.64 58:-3.26 59:8.1000004 60:-1.11 #
0.00024010337909037612 1:-2.0999999 2:1.75 3:-0.50999999 4:2.3800001 5:-1.33 6:1.49 7:-2.9100001 8:1.74 9:-0.68000001 10:-2.8199999 11:-1.76 12:-1.46 13:2.6600001 14:2.6600001 15:2.52 16:-1.9299999 17:-0.77999997 18:-9.6099997 19:2.51 20:1.6900001 21:1.4 22:19.57 23:0.54000002 24:4.3499999 25:0.94 26:-1.84 27:0.13 28:1.15 29:-0.93000001 30:-0.86000001 31:22.620001 32:4.5599999 33:-5.1700001 35:-2.52 36:-1.54 38:-23.83 39:19.549999 41:-0.88 42:-1.84 43:-0.49000001 44:2.26 46:0.56999999 47:5.8800001 48:1.41 49:-6.27 50:-20.34 51:10.7 52:19.98 54:-4.96 55:-17.91 56:-20.129999 57:-12 59:16.200001 60:8.8199997 #
0.00024010337909037612 1:-0.93000001 2:-0.77999997 3:-0.33000001 4:1.13 5:-0.16 6:-0.64999998 7:0.18000001 8:-0.23 9:-0.58999997 10:-1.76 11:-0.27000001 12:2.0899999 13:2.1400001 14:0.80000001 15:1.87 16:-1.3200001 17:-0.059999999 18:-1.09 19:2.1600001 20:0.63 21:-1.77 22:3.25 23:-3.71 24:1.09 25:2.6099999 26:1.6799999 27:-2.55 28:-2.0599999 29:1.5700001 30:-0.41 31:-1.2 32:-2.4200001 33:4.5700002 34:1.97 35:-0.83999997 36:-0.60000002 37:-0.12 38:-12 39:12 40:-3.3299999 41:1.23 42:-1.25 43:-2.04 44:0.86000001 45:12 46:-4.1999998 47:-2.7 48:3.1800001 49:2.78 50:-1.34 51:2.55 52:-12 53:5.0500002 54:-0.20999999 57:-9.5900002 58:12 59:-2.45 60:2.1099999 #
-0.00024010337909037612 1:-7.75 2:-4.77 3:-0.38999999 4:15.75 5:-8.79 6:2.3399999 7:0.62 8:-2.8900001 9:-5.98 10:-8.5799999 11:-8.7200003 12:-8.9799995 13:6.52 14:-10.8 15:8.1300001 16:14.09 17:27.620001 18:-12.52 19:12.57 20:27.09 21:-15.69 22:-10.23 23:-17.57 24:-22.93 25:-10.75 26:16.299999 27:-2.03 28:19.309999 29:-11.75 30:18.389999 31:0 32:5.9000001 33:-4.9200001 34:-11.24 35:10.31 36:24.780001 37:-15.87 38:0.19 39:4.1300001 40:7.1300001 41:11.28 42:-16.299999 43:-22.98 44:9.8800001 45:10.08 46:-25.219999 47:14.59 48:-4.3899999 49:15.12 50:-6 51:5.6799998 52:-14.2 53:6 54:-21.77 55:-7.6900001 56:11.8 57:13.02 58:12.2 59:-8.1999998 60:20.25 #
-0.00024010337909037612 1:10.095445 2:10.174778 3:-8.0686846 4:-10.146677 5:6.5136538 6:-10.139288 7:6.6333184 8:-10.10622 9:8.4849806 10:-10.113273 11:10.095529 12:10.148466 13:10.43209 14:-10.448818 15:10.449158 16:-8.3858433 17:6.4846354 18:-10.438436 19:-10.155648 20:-8.3088512 21:-8.2556858 22:6.7968235 23:-10.144156 24:10.173541 25:-8.109621 26:-10.097412 27:-10.438175 28:10.289741 29:9.9839334 30:-10.150506 31:9.6904612 32:-8.5192118 33:-9.9461489 34:10.091332 35:-10.158308 36:-6.683876 37:-8.9938679 39:9.9619217 40:-6.7441154 41:-9.7834616 42:10.451773 43:10.128076 44:10.849775 45:10.078238 46:-8.4984875 47:-10.278906 48:10.115131 49:-10.310343 50:10.524668 51:10.523309 52:-10.454302 53:-10.859505 54:10.143955 55:9.9575033 56:-10.64745 57:-10.32265 58:-9.951211 59:-8.3640022 60:8.5083933 #
-0.00024010337909037612 1:-7.6399999 2:-5.4699998 3:-0.17 4:17.77 5:5.1599998 6:6.0999999 7:6.5500002 8:-6.48 9:-18.6 10:3.27 11:-7.9699998 12:17 13:-9.0500002 14:10.72 15:6.48 16:7.0500002 17:-8 18:-15.34 19:-10.02 20:14.82 21:-15.34 22:14.17 23:-7.3600001 24:-18.940001 25:-11.25 26:-14.28 27:-12.02 28:-12.09 29:8.0299997 30:11.45 31:-10.7 32:10.64 33:6.9299998 34:-7.98 35:-11.19 36:14.87 37:16.42 38:11.73 39:-11.2 40:-14.09 41:-13.39 42:17.040001 43:23.16 44:-7.5500002 45:9.1800003 46:-15.41 47:-9.2299995 48:-6.0599999 49:7.7800002 50:-8.7700005 51:14.97 52:10.27 53:-4.6599998 54:12.2 55:14.23 56:-13.18 57:20 58:0 59:11.44 60:-20 #
0.00024010337909037612 1:-8.3110676 2:-8.4589539 3:-8.3858433 4:8.4343481 5:8.481348 6:9.2571659 7:8.4807463 8:8.4734707 9:6.6333184 10:-9.0741863 11:6.5712829 12:8.4415989 13:-8.5444584 14:-10.110954 15:-8.3468771 16:6.5031986 17:-8.4371147 18:8.5044832 19:8.2825775 20:-8.3639593 21:8.4797592 22:6.8906837 23:8.4887123 24:9.1217384 25:8.3812714 26:8.6973696 27:-8.6634636 28:5.8241906 29:9.5304832 30:9.1104393 31:-9.6137218 32:-8.3239632 33:-9.3512926 34:-9.5147266 35:9.2602625 36:-8.3445253 37:-9.1445856 38:9.7451706 39:-9.1474724 40:9.9584808 41:-9.0823383 42:-8.2513237 43:-8.3286247 44:-8.0496693 45:-8.3350973 46:-9.5296412 47:-9.2565145 48:-9.0812435 49:-7.4378252 50:9.3850613 51:-9.5809011 52:9.6749687 53:-8.2564135 54:9.2276354 55:5.1685596 56:-9.2443686 57:-9.653739 59:-9.2636662 60:9.5562305 #
0.00024010337909037612 1:-8.3110676 2:-9.180006 3:-8.3858433 4:5.3367538 5:-9.1538153 6:9.1959772 7:-9.1769953 8:9.1656551 9:6.6333184 10:-9.9678764 11:6.5712829 12:9.8661661 13:8.5595942 14:-9.1783199 15:-8.5795288 16:7.0686941 17:-10.080445 18:9.5854616 19:10.09894 20:-8.3639593 21:10.092655 22:9.2314959 23:9.1970549 24:4.3869958 25:-10.117276 26:10.078014 27:8.454813 28:-8.3277321 29:8.4288273 30:-9.0886221 31:-10.273657 32:-10.077067 33:-10.109974 34:9.1463299 35:9.6979113 36:-4.560935 37:-9.6271324 38:8.6159639 39:-10.10317 40:8.3137035 41:10.132794 42:-8.7123165 43:-10.1074 44:10.109285 45:-9.528451 46:5.9093604 47:-10.098241 48:9.9574356 49:-9.6799173 50:9.3376446 51:6.9799638 52:8.3147278 53:1.4635224 54:9.109602 55:-9.2423658 56:-9.1528492 57:9.8665409 58:10.574995 59:-8.3530359 60:9.027751 #
0.00024010337909037612 1:-8.2004271 2:-9.0825596 3:9.0400858 4:9.1298389 5:6.6333184 6:-9.0447264 7:-8.3566341 8:8.3858433 9:-8.1420574 10:-6.3470974 11:-9.0430002 12:-9.0309753 13:-8.4879675 14:8.4090157 15:-8.4517784 16:8.3545914 17:-8.4884653 18:8.5286093 19:6.2788806 20:-9.0759153 21:-9.1044006 22:-10.050078 23:6.37394 24:-8.4353695 25:-8.5109282 26:6.0991893 27:8.5713844 28:9.2070141 29:8.1739149 30:-8.5925732 31:8.155714 32:-8.2775736 33:-8.2896652 34:6.6147761 35:-8.182622 36:-8.3382368 37:-10.03967 38:10.315577 39:-10.332414 40:8.3755398 41:-8.5318937 42:-8.3289948 43:-8.1785851 44:9.0765123 45:-8.0981598 46:8.9814081 47:-8.1729517 48:-4.9791527 49:-9.8237095 50:10.103756 51:-8.3157005 52:9.0242796 53:8.6229258 54:-8.4671469 55:8.0105677 56:-5.2550731 57:-9.9299326 58:6.3042202 59:-8.3618975 60:8.4980764 #
0.00024010337909037612 1:-9.0216885 2:-8.3451338 3:8.5891743 4:8.6887493 5:-8.2209864 6:8.5653639 7:-8.0950651 8:9.0142593 9:6.6333184 10:-8.3845701 11:8.3408089 12:-9.1066475 13:-8.3952713 14:9.0471439 15:-8.9644041 16:0 17:-9.5003262 18:-8.2351789 19:9.5198793 20:-9.072526 21:9.1053925 22:8.1724777 23:8.6301432 24:9.1863155 25:-8.6096888 26:9.1334925 27:-8.5905771 28:8.5209455 29:-8.3925734 30:9.0071697 31:-9.1494675 32:-8.1293726 33:-9.056263 34:9.0102558 35:-9.0345631 36:-8.1922407 37:-9.1081171 38:10.184781 39:8.5288162 40:8.5096483 41:8.1098843 42:-9.0142822 43:-9.0319252 44:9.0343561 45:-8.1491547 46:-10.218915 47:-8.4915457 48:8.5215178 49:-9.0605717 50:9.8456345 51:-9.0449991 52:8.2058334 53:-9.156249 54:8.5899267 55:-6.9622693 56:-8.5059319 57:-9.113203 58:-6.8856373 59:-8.0424538 60:-8.5193691 #
0.00024010337909037612 1:-8.5957499 2:-9.146142 3:6.2146082 4:8.5402641 5:6.6333184 6:8.5853424 7:-8.3566341 8:8.3858433 9:8.5180063 10:-8.1583366 11:8.2495832 12:-9.0450459 13:-8.6412687 14:6.2933888 15:-5.6493421 16:8.3545914 17:-7.1300707 18:9.4846544 19:6.8520541 20:-8.1810932 21:-8.255784 22:-8.2956133 23:8.4330387 24:8.5667686 25:-4.3820267 26:-9.412528 27:-8.6235342 28:8.0665998 29:9.0996933 30:-8.3792276 31:-9.0478191 32:-8.2325459 33:-7.4687905 34:8.3725519 35:-8.2475252 36:-9.1731062 37:-7.839169 38:8.8820019 39:8.4620438 40:8.4012985 41:-10.235945 42:-8.3674946 43:-7.178906 44:9.1406755 45:-4.6051702 46:8.5742416 47:9.2877998 48:-8.4424763 49:-4.5983 50:6.1646299 51:-9.2196798 52:-9.1796665 53:8.5580082 54:8.6642838 55:-9.4804258 56:8.304842 57:-8.7570486 58:8.9921074 59:-9.2235918 60:-8.4452448 #
-0.00024010337909037612 1:-8.1894302 2:8.5937233 3:-8.2119293 4:8.6887493 5:6.1598001 6:8.4358521 7:-8.1888866 8:8.5863705 9:6.6333184 10:-8.324481 11:6.4614682 12:-8.6505842 13:-8.3015471 14:-9.4579678 15:-8.5134764 16:0 17:-8.4290533 18:-9.5176125 19:10.079457 20:-8.2577429 21:-8.2458305 22:8.5351992 23:6.4223609 24:6.2995815 25:8.417963 26:8.4753084 27:-8.1687727 28:-8.3361177 29:9.5138683 30:-8.2582569 31:8.5202599 32:-8.2527113 33:-8.2340336 34:8.4098301 35:8.4478121 36:-8.5327873 37:6.9457731 38:10.199711 39:10.054969 40:-8.561676 41:-9.798399 42:-6.0242543 43:-8.2934484 44:9.486517 45:-7.0803738 46:8.5741215 47:-8.2413063 48:-10.058715 49:4.8426661 50:-8.3051548 51:-8.5964928 52:8.4236574 53:-9.777319 54:9.4881535 55:8.2657309 56:8.2462807 57:-10.269846 58:-8.6625538 59:-8.7367487 60:-9.4992924 #
-0.00024010337909037612 1:-8.1894302 2:-8.4739151 3:-8.2119293 4:8.6887493 5:8.2982559 6:8.4106169 7:-8.1410236 8:8.5130568 9:6.6333184 10:-8.1601772 11:8.5494051 12:-8.8047686 13:-8.3019171 14:-10.163009 15:8.3580933 16:0 17:-8.0957985 18:9.9399347 19:-8.6232042 20:8.259367 21:8.4904156 22:7.7214146 23:8.4746838 24:8.6437302 25:8.4682302 26:9.872509 27:-8.5352707 28:8.2902002 29:7.3598084 30:-9.8564367 31:-9.6794691 32:-9.5171337 33:-8.2616482 34:-9.9279633 35:8.5893555 36:-8.2765741 37:9.2937412 38:9.5098133 39:6.6790695 40:-9.1768961 41:-9.8621378 42:-8.1959734 43:-8.6779423 44:-8.7593765 45:8.1993399 46:9.6541977 47:-9.2103558 48:-8.2516403 49:-8.1345577 50:-4.7874918 51:9.5218039 52:7.8113103 53:9.2800846 54:9.6028872 55:-9.9026175 56:-9.6869612 57:-9.293067 58:-6.6012673 59:-8.1520672 60:8.3037949 #
-2.4252505525640389e-005 1:6.6333184 2:-8.3913031 3:8.5585032 4:8.5070534 5:8.7938299 6:8.6483068 7:-8.1583776 8:8.3858433 9:-8.2875051 10:-8.5754023 11:8.4575262 12:-9.6377068 13:8.4852934 14:-8.7380619 15:-7.2319956 16:8.5969877 17:-9.1245708 18:-8.2314568 19:-8.3878984 20:8.5557137 21:-8.3108168 22:9.5532541 23:8.3247814 24:8.4952869 25:-9.1617832 26:-8.2749615 27:-9.5796461 28:8.5072861 29:8.5401678 30:-8.5634594 31:9.4974289 32:9.1784306 33:-9.2087297 34:8.5678949 35:-4.2694383 36:-8.1999245 37:-9.5193605 38:9.6019354 39:8.532835 40:9.17241 41:9.1562147 42:-8.2230988 43:-9.2178783 44:8.4985809 45:-8.1571474 46:7.2267027 47:-8.257267 48:-8.2773848 49:-8.6284943 50:9.2367516 51:9.1580725 52:8.3820848 53:6.5309658 54:8.4419146 55:6.787704 56:-9.234766 57:-9.5551548 58:-6.9410057 59:8.6306105 60:8.3992977 #
-0.00012019744011864044 1:-8.3110676 2:8.4794569 3:-8.3858433 4:5.3367538 5:8.4674435 6:9.2547722 7:-8.4335861 8:6.0365849 9:6.6333184 10:-3.1901422 11:6.5712829 12:-10.30997 13:-9.1285133 14:8.5660877 15:-8.3170643 16:7.0686941 17:-9.0160408 18:-8.2365084 19:6.5832076 20:-8.3639593 21:6.0894308 22:8.5963821 23:6.871119 24:-8.3217783 25:4.3820267 26:6.8791108 27:-5.9898248 28:7.3415322 29:2.9484687 30:5.7115903 31:-9.2235622 32:-8.5662117 33:-8.2525911 34:-5.2256589 35:8.4622707 36:-6.1408687 37:-9.1214886 38:9.9864855 39:8.3441048 40:4.6589479 41:-8.5171576 42:-5.8987007 43:-8.4526358 44:6.1350493 45:10.327653 46:5.9093604 47:-8.6123257 48:-9.0796938 49:8.6881857 50:9.6284971 51:-9.5981159 52:8.7624664 53:1.4635224 54:8.5901937 55:-8.4188175 56:-8.5820751 57:-9.070241 59:-8.5939178 60:9.0330992 #
-0.00024010337909037612 1:6.6333184 2:-8.3913031 3:8.5463486 4:8.5189466 5:8.7938299 6:8.5803566 7:-8.1872683 8:8.3858433 9:-8.2510395 10:-8.2974892 11:8.2748117 12:-8.2212038 13:-8.2875147 14:8.5483093 15:-8.1790113 16:8.494875 17:-8.161994 18:-8.2303524 19:-9.6032076 20:-8.3098907 21:-9.0938892 22:6.4124942 23:8.7632771 24:8.2473421 25:-8.3075504 26:8.4487858 27:-8.226615 28:9.0525475 29:8.2556677 30:8.2006683 31:-9.5544291 32:-8.3368454 33:-9.0864296 34:6.4740348 35:8.4545298 36:-8.4362507 37:9.1904659 38:-6.2292862 39:8.1678896 40:-9.9303417 41:-9.0467329 42:-8.2432032 43:-8.4169731 44:9.6651764 45:10.262738 46:8.4577732 47:-8.3565502 48:-6.6754794 49:-8.2321129 50:10.630597 51:-9.4720316 52:9.1389141 53:9.0073318 54:9.132762 55:9.687602 56:-9.522707 57:-8.9113379 58:-9.0930166 59:-9.084383 60:8.3836241 #
0.00024010337909037612 1:-2.46 2:1.04 3:-0.16 4:2.46 5:1.15 6:0.17 7:1.7 8:-0.1 9:-1.53 10:-0.63 11:8.9799995 12:-29.83 13:1.16 14:-2.54 15:-0.090000004 16:1.38 17:2.9100001 18:-2.05 19:0.090000004 20:-0.69999999 21:1.88 22:-11.94 23:-1.8 24:-9.0500002 25:-2.22 26:-9.1099997 27:-13.04 28:1.73 29:0.029999999 30:-1.85 32:11.22 33:-9.8800001 34:7.04 35:-6.27 36:0.0099999998 37:-14.77 38:34 39:2.9400001 40:-13.25 41:-10.23 42:-1.13 44:-9.79 45:14.63 46:12.5 47:17.17 48:-2.4100001 49:11.34 50:20.530001 51:-21.16 52:0.75 53:12.44 54:3.9200001 55:24.719999 56:-20.99 57:34 58:-34 59:9.6499996 60:9.0200005 #
0.00024010337909037612 1:-1.25 2:-0.050000001 3:0.22 4:1.05 5:-0.80000001 6:-1.1799999 7:0.60000002 8:-0.2 9:-0.63 10:-1.72 11:1.27 12:-3.1099999 13:-1.73 14:0.16 15:2 16:2.4400001 17:-0.69 18:1.34 19:-0.07 20:0.69 21:18.91 22:-1.77 23:2.6300001 24:-2.4200001 25:-26 26:2.9100001 27:2.96 28:-3.51 29:1.63 30:-0.38 31:-16.35 33:-26 34:-17.67 35:-3.73 36:-2.9100001 37:-14.01 38:16.5 39:15.55 40:14.73 41:-22.52 42:0.55000001 43:-3.55 44:6.6700001 45:26 46:2.3299999 47:-26 48:-2.9400001 49:20.799999 50:26 51:26 52:1.03 53:-16.34 54:3.8299999 55:17.389999 56:9.6599998 57:-1.72 58:-15.9 59:2.55 60:-7.1999998 #
0.00024010337909037612 1:-2.8800001 2:4.2199998 3:-1.88 4:1.91 5:-4.23 6:1.14 7:-2.8299999 8:-2.1199999 9:5.8000002 10:3.5899999 11:5.27 12:-4.5500002 13:-3.5899999 14:-2.72 15:1.3 16:1.74 17:3.9400001 18:22.139999 19:-21.09 20:-1.16 21:-4.1100001 22:-4.3899999 23:-6.8699999 24:-3.99 25:-4.6300001 26:-14.4 27:-19.58 28:18.860001 29:-4.4000001 30:-5.23 31:-25.059999 32:16.51 33:3.23 34:5.75 35:-6.29 36:4.3899999 37:-7.9200001 38:31.09 39:26.809999 40:23.299999 41:-30.700001 42:3.27 43:3.77 44:27.940001 45:12.54 46:3.71 47:29.299999 48:-28.4 49:24 50:0 51:-24 52:-24 53:-4.3200002 54:4.8499999 55:3.1199999 56:-26.969999 57:-30.370001 58:-23.84 59:25.66 60:4.4899998 #
0.00024010337909037612 1:6.6333184 2:8.6094818 3:8.488122 4:-9.296978 5:-10.071966 6:8.3652725 7:-8.3566341 8:8.3858433 9:-9.9044456 10:9.9487753 11:9.2057438 12:10.454563 13:9.2015982 14:-9.151576 15:-8.4188013 16:9.1685257 17:-9.9932575 18:-9.3681078 19:10.121975 20:-9.1257181 21:-9.1480103 22:9.0675468 23:9.1084728 24:9.9645863 25:-8.622262 26:-6.1069226 27:-9.9667521 28:-8.3589935 29:9.1614265 30:8.5702019 31:-10.268253 32:-9.0844936 33:10.494806 34:10.084417 35:-10.489106 36:-6.8159561 37:-10.404281 38:8.3640938 39:9.9039135 40:-10.245918 41:-8.1989937 42:-9.1743298 43:9.30406 44:10.414112 45:10.6427 46:-10.430682 47:9.9663439 48:9.1817703 49:-10.140836 50:10.149494 51:-9.1773853 52:-9.2150555 53:10.242293 54:6.3276563 55:8.3520164 56:-9.1117992 57:5.8685193 58:10.6459 59:-9.1066666 60:8.1972094 #
-0.00024010337909037612 1:6.6333184 2:-10.168177 3:-10.237029 4:-8.3858433 5:10.218031 6:-10.209384 7:-10.195212 8:-10.146613 9:10.203583 10:10.226284 11:10.193213 12:-10.22266 13:10.222132 14:10.245634 15:10.219425 16:10.205213 17:10.202541 18:-10.231495 19:10.236794 20:-10.188182 21:8.6887493 22:-11.179481 23:-10.167547 24:10.267099 25:-10.13138 26:-10.140922 27:-10.142802 28:10.179164 29:-11.376114 30:-10.255301 31:-11.419204 32:10.193546 33:10.213756 34:10.253304 35:10.221265 36:-8.5605335 37:-10.220815 38:11.323891 39:11.388535 40:7.3531609 41:-9.6415014 42:10.214668 43:-10.244946 44:10.231934 45:10.214521 46:-11.173865 47:10.252085 48:-10.214812 49:11.323782 50:10.842454 51:-11.170836 52:-10.489532 53:-10.332982 54:-10.225521 55:11.17555 56:-10.945057 57:11.175081 58:11.175865 59:10.252 60:-10.256249 #
-0.00024010337909037612 1:-3.0799999 2:1.26 3:0.40000001 4:2.4300001 5:-0.23 6:0.029999999 7:0.090000004 8:-1.63 9:-2.5699999 10:7.3800001 11:-0.56 12:-6.6999998 13:-3.24 14:-0.63999999 15:0.40000001 16:7.8899999 17:-26.290001 18:-2.8399999 19:2.71 20:-2.05 21:-0.77999997 22:-21.950001 23:4.48 24:-7.9299998 25:6.6300001 26:-7.3899999 27:-5.3499999 28:7.1300001 29:-5.8000002 30:0.58999997 31:6.1300001 32:-4.8499999 33:-4.7399998 34:-11.85 35:10.24 36:5.5500002 37:-23.65 38:-32.040001 39:5.5700002 40:10.29 41:-10.59 42:8.5500002 43:28.32 44:-6.98 45:17.01 46:-34 47:5.5999999 48:1.21 49:-6.3899999 50:29.75 51:-8.7600002 52:32.830002 53:20.450001 54:-8.5600004 55:0 56:22.799999 57:34 58:-34 59:8.3699999 60:-31.01 #
0.00024010337909037612 1:-8.300806 2:-3.8894188 3:-8.3858433 4:9.199604 5:-8.1257935 6:6.9148631 7:8.2224588 8:9.676405 9:6.6333184 10:8.3790426 11:6.5712829 12:9.5934305 13:-8.265049 14:-2.9959822 15:-8.5264034 16:6.5792513 17:-8.6009378 18:8.3365479 19:-9.6747732 20:9.2019606 21:-8.5360785 22:6.5921764 23:-8.5059385 24:6.5160437 25:8.2227764 26:-6.6111445 27:-8.5757189 28:9.7204256 29:8.3508043 30:-9.2290745 31:8.6817265 32:-5.9897079 33:-8.2098017 34:7.3906426 35:-8.3033924 36:-8.3858404 37:7.9030185 38:10.175259 39:8.6822367 40:-9.1861134 41:8.4649162 42:-8.2086029 43:4.7415786 44:7.092638 45:-7.9283776 46:-9.1679707 47:-9.0302048 48:-7.9279742 49:-9.1158428 50:-9.2909098 51:-9.9268398 52:8.6068764 53:-6.0180321 54:-7.0662961 55:-9.9152584 56:-5.4641857 57:-10.047609 58:-6.9342756 59:-9.0734768 60:-6.6042628 #
0.00024010337909037612 1:-8.1894302 2:-9.0919991 3:-8.2119293 4:8.6887493 5:8.4539957 6:9.2393074 7:-8.2639055 8:9.0401363 9:6.6333184 10:6.3378086 11:8.4692545 12:9.8970194 13:-9.0526628 14:-9.0627489 15:-8.3337479 16:0 17:-8.1844015 18:9.0068331 19:9.0634212 20:9.0958595 21:-9.9152451 22:9.2119484 23:6.3943624 24:-8.3147163 25:-5.6943436 26:-8.2656527 27:-9.1781063 28:-8.9749441 29:8.5392618 30:9.1376438 31:-9.0612564 32:-9.954052 33:-9.0314302 34:5.3194981 35:9.9350748 36:-8.9822025 37:-5.0459867 38:9.9204702 39:8.1374235 40:8.6655369 41:-9.5140018 42:8.4637194 43:-8.9915113 44:-9.9059219 45:-8.0552626 46:8.5037451 47:-8.6586533 48:-8.1897221 49:-9.1151705 50:6.6217384 51:-10.292487 52:10.150916 53:8.562294 54:10.149419 55:-9.0237751 56:9.6183853 57:-10.301764 58:9.2686758 59:-10.085151 60:8.5110464 #
0.00024010337909037612 1:8.6249094 2:-9.1577291 3:8.428318 4:8.6096888 5:6.6333184 6:8.6183491 7:-9.8858452 8:8.3858433 9:9.6313152 10:7.0707812 11:7.1261158 12:-9.0746107 13:9.6108418 14:-9.5849438 15:-9.6113911 16:8.3878946 17:9.2456093 18:-9.2072773 19:9.2181816 20:-8.4479818 21:-8.2390671 22:9.5328217 23:-8.2633753 24:9.5735855 25:9.6703243 26:10.122504 27:-9.6060543 28:9.9412003 29:-7.1284199 30:-8.2992945 31:6.0613766 32:-9.1402884 33:-10.070858 34:-8.5966749 35:-9.0419788 36:-9.0224237 37:9.2697182 38:9.2235737 39:-9.1908112 40:9.1313086 41:-9.5910263 42:-9.6183109 43:-9.5442266 44:9.8508139 45:-8.1824999 46:-5.4226975 47:-9.6193199 48:9.6886921 49:-10.082663 50:9.9336309 51:-7.2003942 52:9.1355152 53:8.4371367 54:9.2045994 55:9.6798182 56:-9.1591911 57:-10.531334 58:5.789578 59:-9.5558014 60:8.6225119 #
-0.00024010337909037612 1:-8.3566341 2:-6.8948765 3:4.6051702 4:8.5721493 5:-8.2931271 6:-6.2212524 7:6.6333184 8:8.4791632 9:-8.2369947 10:8.5188513 11:6.5951457 12:-9.5509176 13:-8.1952581 14:-8.5349998 15:-8.3755255 16:6.1430144 17:-8.8524027 18:8.5859671 19:-10.476967 20:8.3858433 21:9.1881475 22:9.9110899 23:8.5469332 24:8.5802212 25:-8.6036434 26:9.1653175 27:-9.1132441 28:8.565589 29:8.5509005 30:8.230957 31:-9.9346285 32:8.6995211 33:-8.6855536 34:-8.2369108 35:-9.123271 36:-8.1735306 37:8.4161673 38:8.8236532 39:10.424033 40:-9.1353378 41:7.3546829 42:-9.1498117 43:-8.7397919 44:8.7382488 45:-9.2237864 46:9.4883204 47:8.7170258 48:8.6094093 49:-8.4857693 50:9.6808929 51:-8.6768885 52:-10.62845 53:9.043417 54:8.4444437 55:8.5272446 56:-9.1248808 57:-9.9113045 58:10.490842 59:-8.5729885 60:8.0995646 #
-0.00024010337909037612 1:-8.3110676 2:8.4554014 3:-8.3858433 4:8.6616383 5:-8.6997404 6:9.207037 7:-9.1094284 8:8.7752361 9:6.6333184 10:-8.6983013 11:6.5712829 12:-9.1044979 13:-9.1259069 14:-9.1808729 15:-8.1581898 16:8.6579742 17:-9.1878004 18:6.0094829 19:8.6388273 20:-8.3639593 21:8.3158655 22:7.0774217 23:9.23141 24:8.5749331 25:-8.1775637 26:-10.600439 27:-8.368639 28:9.2206717 29:9.2479668 30:8.3450212 31:9.1691875 32:-8.521203 33:-9.208106 34:8.5335484 35:-8.4547596 36:-9.5311918 37:8.6082678 38:8.8108568 39:8.4017458 40:9.2087364 41:-9.5485125 42:-9.156476 43:-8.1952181 44:10.27528 45:8.4940042 46:-8.2910652 47:6.1527238 48:8.412674 49:-9.4971228 50:-9.0365925 51:-9.0617723 52:6.3418698 53:8.554328 54:-8.6063337 55:-10.098441 56:-5.99017 57:-10.264853 58:10.408129 59:-9.1923122 60:9.1816254 #
-0.00024010337909037612 1:6.2272549 2:8.6202517 3:8.7098866 4:8.4859056 5:6.6333184 6:8.9940519 7:-8.3566341 8:8.3858433 9:-8.1443281 10:-8.0314665 11:9.0658531 12:6.8970733 13:8.1805515 14:-8.2642393 15:-8.3549557 16:8.3545914 17:-8.2105684 18:-9.0173588 19:-8.1823196 20:8.4641953 21:8.5033989 22:8.5230217 23:8.2858829 24:7.1550031 25:-8.1025047 26:8.5932674 27:-9.0805235 28:-8.4274902 29:8.2544842 30:-8.4594221 31:-9.0527296 32:8.0783644 33:-8.5708876 34:8.5614405 35:-9.1367073 36:-8.3734407 37:-7.3639517 38:10.564477 39:8.1960497 40:8.1862726 41:-7.132041 42:-8.5035629 43:-8.3121424 44:8.5944042 45:-8.4463978 46:8.0543547 47:9.1354961 48:-8.180254 49:-9.0464611 50:9.605258 51:-8.3877811 52:9.0049877 53:8.0747957 54:-8.3367014 55:9.6988239 56:-9.0622253 57:-10.353676 58:-6.8517728 59:-9.0278454 60:8.2013454 #
-0.00024010337909037612 1:-8.3566341 2:-8.4176569 3:4.6051702 4:-8.3614769 5:-9.8165646 6:6.4383669 7:6.6333184 8:-9.2572861 9:8.5136089 10:-8.1978083 11:8.4983644 12:9.8506584 13:-9.8203316 14:-9.6496716 15:-8.3570604 16:8.4250402 17:8.1940041 18:8.6217947 19:-9.5291004 20:8.3858433 21:9.8038425 22:8.727685 23:-6.2957568 24:8.5785589 25:-9.6364756 26:9.8146505 27:-9.8511305 28:-10.362423 29:9.2556944 30:-6.9204941 31:7.2171512 32:-8.1410809 33:-9.8483191 34:6.62008 35:-9.8135138 36:-8.3745594 37:8.3480635 38:9.1308279 39:-8.4186211 40:9.8493891 41:-9.5800304 42:-8.537406 43:9.8235474 44:8.6858158 45:-9.0509024 46:6.954896 47:9.6338139 48:9.8187342 49:-9.8039303 50:10.331737 51:-9.2178917 52:9.5277166 53:-7.0295172 54:-9.5710163 55:-8.4676561 56:-8.4366465 57:-8.0778542 58:10.602491 59:-8.1204901 60:8.7774496 #
-0.00024010337909037612 1:-8.2277184 2:-3.8068168 3:8.3821115 4:8.6887493 5:-9.870019 6:5.7473106 7:-8.2634993 8:-9.1370287 9:6.6333184 10:9.6529837 11:6.2068615 12:10.389332 13:-9.1844988 14:-9.7371426 15:-10.067297 16:0 17:7.062377 18:9.6773024 19:10.315061 20:8.4401741 21:6.7473021 22:9.1702251 23:6.4404149 24:-8.393856 25:-6.85817 26:7.0033522 27:-6.9586134 28:-10.245607 29:6.9058466 30:9.6197748 31:9.281476 32:9.7096806 33:-9.6480551 34:9.1796579 35:-8.3307104 36:-8.3815918 37:-6.6989064 38:9.1194143 39:-10.242751 40:-9.1516228 41:-6.2289939 42:-8.6005306 43:-6.9242816 44:4.7269454 45:9.6817827 46:8.5859671 47:-6.7975936 48:9.2028275 49:-9.4916983 50:10.609704 51:-9.7319212 52:9.8508091 53:8.3154545 54:7.1730576 55:9.459549 56:-9.5827093 57:-10.384917 58:-8.5576506 59:6.5082049 60:8.5094976 #
0.00024010337909037612 1:6.57616 2:-7.6514473 3:-3.6888795 4:8.1294374 5:8.2378025 6:-8.8551235 7:-8.7621975 8:-8.2047186 9:6.6333184 10:-9.1227646 11:9.1277208 12:-9.0416317 13:9.0730925 14:-9.7123938 15:-10.366594 16:0 17:8.7513828 18:-8.3837357 19:9.3365059 20:-9.1107664 21:8.3095465 22:-9.3864651 23:8.1679878 24:8.0438156 25:-8.2247238 26:-8.3091116 27:5.8187299 28:8.8180838 29:6.868371 30:-9.1046953 31:-8.6815176 32:8.3666525 33:-9.0367889 34:-8.293828 35:7.1127968 36:-8.1860609 37:8.1949224 38:9.39468 39:-9.7251968 40:-6.2891035 41:-9.5629225 42:8.6038303 43:-8.4363956 44:6.8038554 45:10.189547 46:-8.9004183 47:-8.0999193 48:-8.4438572 49:-9.0257454 50:10.59627 51:-7.0546503 52:-8.5568409 53:9.7242889 54:7.4234304 55:6.4005189 56:5.2896142 57:-8.4455547 58:-10.648232 59:9.4895716 60:9.0473795 #
0.00024010337909037612 1:-1.49 2:1.15 3:-2.1500001 4:1.1799999 5:0.029999999 6:0.75 7:-0.34999999 8:-0.81999999 9:0.02 10:2.4400001 11:-0.41999999 12:-2.78 13:3.98 14:0.46000001 15:-3.27 16:2.3699999 17:-6.8800001 18:-11.38 19:12.32 20:-0.37 21:3.45 22:-1.8 23:-1.59 24:0.37 25:-5.6500001 26:-4.9899998 27:-3.24 28:12.38 29:-12.35 30:1.8 31:-2.9100001 32:8.2399998 33:9.1599998 34:3.0899999 35:-2.9100001 36:-2.8499999 37:0 38:5.5100002 39:0.31999999 40:-8 41:-8 42:1.47 43:3.54 44:-1.98 45:8 46:1.27 47:4.21 48:-2.23 49:-8 50:8 51:8 52:-10.55 53:-3.48 54:1.21 55:1.73 56:3.22 57:3.48 58:0 59:-2.3099999 60:-1.17 #
0.00024010337909037612 1:-3.48 2:-1.04 3:-2.55 4:2.27 5:-0.30000001 6:1.24 7:0.02 8:0.0099999998 9:-2.27 10:-13.27 11:15.91 12:16.15 13:1.96 14:-16.52 15:-0.25999999 16:-1.74 17:-8.0799999 18:12.38 19:4.5100002 20:1.5700001 21:0.41 22:-10 23:-0.34 24:1.5 25:-1.0700001 26:-0.37 27:-5.52 28:2.74 29:-3.52 30:-2.02 31:-9.2600002 32:0.49000001 33:2.4100001 34:-0.17 35:14.9 36:-1.16 37:7.9099998 38:11.49 39:-6.6799998 40:-7.8499999 41:-15.47 42:2.4000001 43:-14.7 44:10 45:10.58 46:-9.4899998 47:-2.4100001 48:1.22 49:-3.8 50:9.9799995 51:8.9200001 52:-2.5899999 53:-10.87 54:4.1199999 55:5.98 56:-10 57:3.99 58:0 59:-0.79000002 60:-1.9400001 #
-0.00012271722438530292 1:-3.24 2:0.87 3:0.43000001 4:2.3 5:-1.84 6:0.13 7:0.19 8:-1.67 9:-2.04 10:-0.66000003 11:2.52 12:6.1599998 13:-5.98 14:4.6399999 15:0.64999998 16:0.83999997 17:-9.9200001 18:4.4099998 19:6.8299999 20:-1.33 21:5.8000002 22:-10.6 23:-2.77 24:2.3699999 25:-2.23 26:-3.74 27:30.280001 28:-6.1799998 29:-34.810001 30:0.25 31:35.23 32:-44 33:-30.450001 34:8.1700001 35:-5.02 36:-9.6000004 37:25.98 38:10.8 39:-34.700001 40:-26.629999 41:-44 42:-10.8 43:7.9400001 44:-4.9699998 45:32.169998 46:-7.2800002 47:-22.51 48:9.9099998 49:0 50:40.299999 51:44 52:-29.98 53:-5.9000001 54:11.78 55:18.360001 56:-19.01 57:16.940001 58:29.98 59:-12.19 60:5.9400001 #
-0.00024010337909037612 1:-3.45 2:4.96 3:-3.0899999 4:2.3800001 5:-4.1399999 6:-27.540001 7:-1.41 8:4.27 9:-5.4699998 10:-20.040001 13:0.63 14:-0.60000002 15:-1.16 16:2.71 17:-28.700001 18:-4.54 19:-0.98000002 20:0.22 21:-3.71 22:7.6599998 23:4.27 24:-3.6600001 25:-0.079999998 26:3.24 27:-0.41 28:-2.98 29:2.5899999 30:3.45 32:-4.25 33:2.3499999 34:-4.9099998 35:-3.4100001 36:4.9499998 37:30.1 39:-27.09 40:-0.61000001 41:1.52 42:-5.7399998 43:-10.59 44:11.65 45:25.26 46:-1.76 47:-4.5799999 48:5.5 49:32.040001 50:-32.459999 51:27.41 52:4.02 54:3.1800001 55:29.4 56:-29.59 57:-0.93000001 58:28.809999 59:2.21 60:3.21 #
0.00024010337909037612 1:-9.5450392 2:-9.5299559 3:8.4910545 4:8.6096888 5:6.6333184 6:9.6547251 7:-8.4796495 8:8.3858433 9:-8.4777794 10:9.1125879 11:9.5112934 12:-9.667429 13:-8.3374977 14:9.0500355 15:8.4095116 16:8.5828218 17:-9.4826727 18:-9.882946 19:9.6605844 20:9.5462313 21:-9.5301208 22:9.4885063 23:9.5256996 24:9.5623922 25:-8.3124828 26:8.5356255 27:-10.281367 28:-9.024601 29:6.373734 30:-8.2992945 31:8.6072807 32:6.679131 33:-9.0800591 34:-5.2521877 35:8.318059 36:-9.1432705 37:-9.7053337 38:4.9651728 39:4.6493416 40:-2.3498597 41:-10.038493 42:-9.0491533 43:-9.1063147 44:-9.5273914 45:10.287155 46:9.5374022 47:6.0325942 48:-9.4940653 49:-9.4880524 50:9.6937361 51:-9.1748343 52:9.0765324 53:9.282073 54:-9.4882221 55:9.2906036 56:8.4388638 57:-9.6407938 58:6.9014854 59:-9.5435152 60:9.5173101 #
0.00024010337909037612 1:6.6333184 2:8.6094818 3:8.488122 4:-9.3849993 5:-9.8816557 6:8.7297497 7:-8.3566341 8:8.3858433 9:-10.111588 10:10.166059 11:9.6492338 12:-10.121085 13:-9.8834429 14:-10.194952 15:-8.4188013 16:10.146928 17:-10.116295 18:10.183162 19:-10.159404 20:-8.944521 21:-10.136716 22:9.6200609 23:10.145426 24:9.2661734 25:-9.3342714 26:9.9541922 27:-10.146981 28:-9.9277134 29:9.9453268 30:8.5702019 31:6.7726831 32:10.134026 33:-10.122486 34:9.4221439 35:-10.119781 36:9.3419666 37:-10.141008 38:8.2156105 39:9.2939653 40:9.3725147 41:8.8293486 42:-9.1743298 43:9.9474239 44:10.178659 45:5.6590466 46:-9.6094437 47:-9.3389149 48:9.1817703 49:-9.8910093 50:10.145195 51:-9.1773853 52:9.6383648 53:9.9467344 54:9.3957272 55:-8.0545759 56:-9.1773548 57:-8.7824268 58:9.2236767 59:-8.7331371 60:8.6663179 #
0.00024010337909037612 1:-10.122328 2:-9.5761003 3:9.0400858 4:10.116099 5:6.6333184 6:-9.0315323 7:-8.3566341 8:8.3858433 9:-3.4511147 10:9.5092821 11:9.1193075 12:6.8111038 13:-5.6829844 14:-9.1255064 15:-8.2124157 16:8.3545914 17:-9.3310986 18:9.2268085 19:-9.2190495 20:5.9182925 21:9.1349888 22:9.2990294 23:8.642684 24:9.925087 25:-9.2616892 26:9.0546217 27:-9.5303497 28:-7.135253 29:9.262723 30:-7.9711771 31:5.2728429 32:-5.7397189 33:-9.543314 34:9.6680832 35:-9.1940012 36:-10.122088 37:-10.169086 38:6.548398 39:-7.1602716 40:-9.5986948 41:-9.0745592 42:-9.2248373 43:-9.4995251 44:9.2613678 45:-7.9497118 46:9.5948925 47:8.2278824 48:-6.1166167 49:-8.4283895 50:9.2290373 51:-8.3157005 52:8.7037268 53:-8.4364319 54:8.268157 55:-7.2515745 56:-9.6838598 57:9.5043106 58:-7.9645219 59:-8.9620953 60:5.4331031 #
0.00024010337909037612 1:6.4383669 2:-10.410156 3:9.5260735 4:8.4774799 5:6.6333184 6:9.0801306 7:-8.3566341 8:8.3858433 9:8.5870895 10:-10.392172 11:-10.407214 12:10.403757 13:-10.271155 14:-10.550161 15:-10.700491 16:8.3545914 17:-8.4954844 18:10.279688 19:10.541515 20:8.3427553 21:-9.0674047 22:9.0632105 23:9.071044 24:9.5011005 25:-9.5052814 26:9.1880817 27:8.5395451 28:-10.407209 29:10.288217 30:10.265298 31:-9.7889595 32:10.421562 33:-9.094861 34:10.230397 35:-10.213796 36:-10.41615 37:-10.250613 38:10.39739 39:-9.9118013 40:9.0794554 41:10.563566 42:-8.6005306 43:-9.0413885 44:10.407038 45:10.623322 46:9.4742794 47:-10.563963 48:9.8884535 49:-10.277023 50:10.914401 51:-8.3535738 52:10.246739 53:9.8988705 54:-9.5569391 55:-9.4790583 56:-9.5006275 57:8.338685 58:-10.392404 59:-10.568159 60:-9.0325422 #
-0.00024010337909037612 1:4.8065224 2:-8.3678303 3:6.9146032 4:8.6096888 5:6.6333184 6:-8.1539602 7:-10.099195 8:8.3858433 9:-8.1626129 10:9.5307846 11:8.1902781 12:-9.1503334 13:-8.3568306 14:-8.1492004 15:-6.6576891 16:8.3878946 17:10.919626 18:10.115562 19:6.1538491 20:-11.317831 21:-8.2390671 22:11.118258 23:9.1583853 24:-7.0465083 25:8.4497175 26:-10.738528 27:-10.128645 28:6.5549302 29:10.152615 30:-8.2992945 31:2.3438051 32:-10.924201 33:-8.3893213 34:10.753266 35:-10.836938 36:-6.4320211 37:-10.999809 38:10.734226 39:7.0027313 40:10.637583 41:-10.924653 42:-8.4355078 43:-9.5465622 44:-10.942732 45:11.309019 46:10.65717 47:-7.1082788 48:-10.144782 49:-9.5608149 50:10.102385 51:-8.6813555 52:10.950948 53:10.999733 54:11.343285 55:-11.232945 56:10.849698 57:-10.924593 58:-10.827287 59:10.941619 60:6.4539766 #
-0.00024010337909037612 1:-8.1822424 2:-8.3004122 3:-8.3545914 4:8.6887493 5:-9.5147943 6:8.5706148 7:-8.3070898 8:9.5118427 9:6.6333184 10:8.2140217 11:8.4941311 12:5.3835731 13:-8.4887562 14:-9.8418741 15:-8.9827042 16:0 17:-8.356616 18:8.5721283 19:8.2659883 20:-9.4813099 21:-3.6888795 22:-9.0421801 23:6.4404149 24:8.2795286 25:-8.3367558 26:4.5301666 27:-6.0107222 28:7.4225054 29:5.6292977 30:-9.7852802 31:-9.4634047 32:8.5021458 33:-8.2570515 34:9.8362684 35:9.2205496 36:-6.2237411 37:-10.779554 38:10.287856 39:8.2332287 40:-9.0890932 41:-9.179306 42:-8.6005306 43:-9.1894798 44:9.4891443 45:9.6553869 46:9.1183186 47:-8.2353649 48:-10.289392 49:-6.3110533 50:10.619731 51:-8.0805902 52:-6.9346323 53:-6.6347017 54:-6.7339835 55:-9.8001585 56:9.0805807 57:10.63842 58:-9.0556479 59:-9.0217819 60:6.3828034 #
-0.00024010337909037612 1:-9.0270739 2:-4.3406773 3:8.428318 4:8.6096888 5:6.6333184 6:-8.1404486 7:8.4757509 8:8.3858433 9:6.7834125 10:6.3088484 11:8.4135437 12:-9.1052542 13:-8.623539 14:-9.1344309 15:-8.2212858 16:8.3878946 17:-8.4762945 18:9.2271614 19:9.5118103 20:-8.4479818 21:-8.2390671 22:9.0815296 23:9.0534878 24:9.490633 25:8.5359831 26:6.5053291 27:-8.1909695 28:8.46523 29:-8.3889771 30:-8.2992945 31:6.2636361 32:-10.57042 33:-4.8128271 34:6.7220945 35:6.4478674 36:-8.172308 37:-9.8468542 38:10.585671 39:8.073473 40:8.0980988 41:-6.9199281 42:8.2864237 43:-8.4872875 44:-9.0522509 45:10.598007 46:9.0336981 47:-7.025187 48:-9.1086626 49:-9.0852451 50:10.930573 51:-9.0319853 52:8.3357744 53:-9.5036297 54:9.0141068 55:-10.109906 56:-9.4801016 57:-9.1672258 58:-10.391916 59:2.6287861 60:6.4134588 #
-4.9604176789681711e-005 1:8.5783482 2:-9.5471134 3:8.4676094 4:8.6887493 5:-8.2209864 6:8.5838966 7:-8.3100443 8:8.5898371 9:6.6333184 10:-9.5233002 11:6.3130484 12:-6.7538104 13:-8.3952713 14:-9.2033243 15:8.6763992 16:0 17:8.5447369 18:-8.9881296 19:9.904952 20:8.3143845 21:8.2169504 22:9.5580902 23:8.5846004 24:8.5040941 25:-8.6096888 26:9.4817066 27:9.4670334 28:9.122076 29:8.7721891 30:-8.3881197 31:9.2062435 32:-8.5867882 33:-9.4788275 34:9.5958004 35:-8.2046413 36:-8.335639 37:-9.9121599 38:7.4552937 39:8.094305 40:-9.8515244 41:-9.0809736 42:-8.3797922 43:-8.1766882 44:9.5210972 46:8.1333065 47:-9.862999 48:-8.4552755 49:-8.0946436 50:10.080153 51:-8.3285294 52:-10.105471 53:3.6084769 54:6.8310461 55:9.656414 56:-9.497097 57:-10.303484 58:-9.6679764 59:-9.4675999 60:-8.4051056 #
-0.00024010337909037612 1:6.6333184 2:-8.3913031 3:8.529892 4:8.4582806 5:8.7938299 6:8.6213932 7:-9.0487137 8:8.3858433 9:8.102376 10:8.5128832 11:8.1657143 12:7.1753283 13:-7.1275921 14:-8.2182627 15:-7.0665097 16:8.6191607 17:-9.6418734 18:8.5356426 19:6.775032 20:-8.2038069 21:6.3494992 22:8.5560102 23:7.0647593 24:9.0804825 25:-8.0944653 26:-8.9898891 27:-9.1259556 28:8.5993881 29:7.2155991 30:-8.2936316 31:-8.2971125 32:-8.2403593 33:-6.923768 34:-9.3135376 35:-9.096159 36:-8.5352736 37:-9.3095779 38:10.053054 39:5.3334217 40:8.0201206 41:-8.9636374 42:-8.1900463 43:-6.5611744 44:-8.1356649 45:-5.9050212 46:-8.6193399 47:-6.2968464 48:-5.7330923 49:-9.2279177 50:-9.4389696 51:-9.6920509 52:9.3618374 53:6.2251348 54:9.2905169 55:-9.0381737 56:-8.3783245 57:-9.8968439 58:8.9653349 59:9.1522083 60:5.70541 #
0.00024010337909037612 1:-2.27 2:1.59 3:2.0899999 4:2.5 5:1 6:-1.97 7:7.5599999 8:0.050000001 9:-1.54 10:-8 11:0.43000001 13:-1.6 14:1.95 15:-0.95999998 16:1.88 17:7.8400002 18:1.75 19:-7 20:6.1100001 21:-2.2 22:7.8000002 23:-1.1900001 24:-7.0100002 25:-12.37 26:-1.63 27:-4.0500002 28:-0.58999997 29:5.02 30:1.52 32:11.47 33:-11.62 34:11.48 35:8.1199999 36:-10.95 37:13.92 38:-8 39:0.66000003 40:-16.24 41:14 42:1.53 43:-7.4699998 44:8.4499998 45:-14 46:-8.8400002 47:10.46 48:-2.96 49:-9.3500004 50:9.5500002 51:-11.39 52:-8.04 54:-10.63 55:13.13 56:-13.55 57:8.5299997 58:7.9099998 59:11.57 60:-6.6300001 #
0.00024010337909037612 1:-3.0899999 2:4.2199998 3:-2.6800001 4:2.6500001 5:-4.73 6:11.74 7:-1.41 8:4.4400001 9:-5.1900001 10:-13.4 11:-8.8000002 12:34 13:0.52999997 14:0.02 15:-1.16 16:2.3399999 17:10.75 18:-4.6100001 19:-1.23 20:0.2 21:-3.3299999 22:8.0100002 23:4.2199998 24:-3.1900001 25:-0.34 26:3.4200001 27:-0.66000003 28:-3.0999999 29:2.8800001 30:3.1800001 31:16.629999 32:-4.52 33:2.6600001 34:-5.0500002 35:-3.9300001 36:4.9200001 38:16.57 39:-12.59 40:0 41:1.74 42:-6.1599998 43:-10.07 44:11.64 45:-17.58 46:-1.62 47:-4.4099998 48:5.1300001 49:-15.52 50:16.780001 51:-15.11 52:3.6900001 53:-21.52 54:3.45 55:12.21 56:-34 57:-1.0599999 58:34 59:3.02 60:3.4000001 #
0.00024010337909037612 1:-2.05 2:1.63 3:0.17 4:1.84 5:1.4 6:-0.54000002 7:1.98 8:-0.28 9:-1.54 10:-4 11:-3.4100001 12:-0.27000001 13:1.47 14:1.13 15:-0.15000001 16:1.75 17:3.4200001 18:-0.38999999 19:13.84 20:-1.12 21:-3.8199999 22:-3.95 23:0.20999999 24:3.99 25:0.28 26:6.04 27:2.2 28:0.43000001 29:-1.12 30:-0.94999999 32:0.92000002 33:-38.209999 34:-0.5 41:-9.75 42:-1.83 43:-0.44999999 44:3.1600001 45:40.369999 46:2.9100001 47:-1.49 48:-4.3000002 49:-37.82 50:39.200001 51:23.85 52:-20.49 55:-2.55 56:7.5700002 57:-29.93 58:35.689999 59:-7.4699998 60:2.3399999 #
-0.00024010337909037612 1:-3.21 2:4.2600002 3:-2.6300001 4:2.22 5:-4.3000002 6:11.55 7:-1.87 8:4.3200002 9:-5.8299999 10:-12.96 11:-9.2200003 12:34 13:0.51999998 14:-0.66000003 15:-0.98000002 16:2.6900001 17:10.75 18:-4.8400002 19:-1.05 20:-0.2 21:-3.7 22:8.25 23:3.8299999 24:-2.8699999 25:-0.63999999 26:3.1300001 27:-0.34999999 28:-2.8499999 29:2.8299999 30:3.5799999 31:16.379999 32:-4.5900002 33:2.6199999 34:-5.1599998 35:-3.9100001 36:4.4099998 38:17.16 39:-12.4 40:-0.090000004 41:1.9400001 42:-5.8800001 43:-10.33 44:11.57 45:-17.48 46:-1.88 47:-4.2600002 48:4.8899999 49:-15.84 50:16.51 51:-15.05 52:3.55 53:-21.27 54:3.27 55:12.76 56:-34 57:-0.75 58:34 59:2.47 60:3.22 #
-0.00024010337909037612 1:-8.3005524 2:4.6650381 3:8.5564423 4:8.6887493 5:-8.5546064 6:8.529192 7:-8.6236029 8:8.4972115 9:6.6333184 10:-8.5786867 11:-8.3611536 12:9.5890512 13:-7.2073264 14:-8.5499411 15:-5.6151505 16:0 17:-6.9329319 18:-9.6623287 19:6.681036 20:-8.3545914 21:-8.1404486 22:8.5461864 23:6.4404149 24:8.4730415 25:-9.8541899 26:8.6326609 27:-6.1405773 28:-10.589418 29:7.0592966 30:9.2187386 31:-9.7124329 32:9.1948729 33:-9.1950092 34:-8.6179543 35:8.6229982 36:-8.6880455 37:-9.4786491 38:10.490016 39:9.2537766 40:6.67625 41:-9.0555639 42:-8.6005306 43:-6.8580832 44:7.0017924 45:9.8942156 46:8.1939011 47:6.4466634 48:-9.072403 49:-8.5089493 50:10.457362 51:9.5946798 52:10.619312 53:10.406639 54:8.5835533 55:-10.465433 56:-9.0535431 57:-8.6763163 58:-9.6055498 59:-8.4272528 60:8.5404272 #
0.00024010337909037612 1:8.382905 2:-8.4254236 3:-8.3858433 4:8.5381775 5:-8.4654102 6:8.3360882 7:-8.3133783 8:-8.5855598 9:6.6333184 10:8.4573374 11:6.5712829 12:-8.5764675 13:-8.4438896 14:-9.2098732 15:8.4389229 16:-3.6888795 17:-8.4086409 18:8.3885946 19:7.6367564 20:-8.4399137 21:8.4954844 22:6.4311152 23:8.3451414 24:6.5455823 25:8.4987564 26:8.5449514 27:-9.5701332 28:8.423214 29:8.644186 30:-8.4700508 31:-9.2520905 32:9.6078129 33:-8.3508892 34:8.4762201 35:-8.4890423 36:-8.3584986 37:-6.1126676 38:5.6122899 39:9.030242 40:8.6411009 41:-8.4972458 42:-9.5824795 43:-8.2776241 44:6.6398759 45:9.6174822 46:8.6430788 47:8.4478645 48:8.4471445 49:-9.1010571 50:9.6447344 51:-8.7099562 52:-8.6669216 53:-8.5875006 54:8.6492472 55:-8.6913824 56:6.0989895 57:-8.4501534 58:-8.4964256 59:-8.3950996 60:8.6552649 #
0.00024010337909037612 1:-8.3110676 2:-9.1083689 3:-8.3858433 4:-8.2598848 5:-8.2642851 6:9.0060596 7:6.9877982 8:8.328022 9:6.6333184 10:7.4954529 11:6.5712829 12:-10.336755 13:-9.9533339 14:10.302526 15:8.4162292 16:8.5699863 17:-9.9599419 18:7.7000294 19:-9.0360641 20:-8.3639593 21:8.4543219 22:-9.0503378 23:8.5230417 24:8.5335436 25:-8.400959 26:9.9536877 27:9.9411221 28:9.9382305 29:9.089654 30:-5.334609 31:10.13433 32:-6.8977852 33:-8.2784309 34:10.321742 35:-8.2958155 36:-9.9224281 37:-10.338033 38:8.4808969 39:-8.8452806 40:8.0898056 41:-7.8160553 42:-8.5525799 43:-9.9515295 44:9.7325668 45:9.4091997 46:9.0123224 47:-8.7875748 48:-7.7028518 49:7.4501982 50:10.122726 51:-8.5796576 52:9.0492182 53:-9.1251564 54:6.7259336 55:8.2304659 56:8.6544008 57:-10.324998 58:-8.7352657 59:-9.9446926 60:8.2743158 #
-0.00024010337909037612 1:6.5136538 2:-9.1894884 3:-8.3858433 4:-8.3545427 5:8.5870895 6:-10.83217 7:-9.7945833 8:8.6118927 9:6.6333184 10:-8.2779427 11:5.2256389 12:-9.7835875 13:10.841748 14:9.5272074 15:-9.2570591 16:-8.3450212 17:8.5962753 18:-9.0033331 19:-9.1349306 20:9.0938234 21:0 22:-10.855299 23:-10.488096 24:5.063386 25:-8.1554689 26:-9.4919796 27:-9.279294 28:9.8778496 29:9.2461081 30:-9.826973 31:-8.5534401 32:8.1822205 33:9.8747015 34:-9.8285398 35:9.1666002 36:8.2324991 37:-9.134552 38:-8.4148369 39:8.6142931 40:9.1612186 41:-9.5129328 42:9.2868795 43:-9.1188459 44:9.8024664 45:10.485099 46:9.175849 47:9.6113052 48:9.5596905 49:-9.8141899 50:10.637102 51:9.8442049 52:-10.058225 53:9.9296141 54:-8.5227871 55:8.5481186 56:10.752224 57:-10.256416 58:-10.193345 59:10.00843 60:-9.8172827 #
-0.00024010337909037612 1:6.6333184 2:8.5680332 3:-9.0097256 4:-8.3858433 5:-9.6532421 6:6.363028 7:-10.119102 8:10.064941 9:9.1815367 10:9.6648979 11:-9.6871738 12:-9.6242952 13:-9.9500275 14:-8.314456 15:-8.4736938 16:-8.1817675 17:9.1897154 18:-9.2043867 19:-10.059835 20:6.3744569 21:8.6887493 22:-9.6321383 23:9.6339674 24:-9.1638985 25:-9.2154102 26:8.4482985 27:-9.5110207 28:9.9387026 29:-10.112904 30:8.424695 31:-9.0682631 32:9.9375553 33:-9.6071062 34:9.6940145 35:9.6409292 36:-8.5605335 37:-9.2626286 38:10.11483 39:8.5542297 40:8.5911236 41:-10.450208 42:9.0412159 43:-7.2949905 44:-10.120811 45:-7.2221098 46:-8.2777872 47:7.7180295 48:9.6483889 49:-8.8544254 50:7.6625237 51:9.6694098 52:8.013238 53:9.5995779 54:9.1637201 55:9.9558086 56:9.6784267 57:9.0102911 58:-6.4987059 59:-10.243393 60:-9.6691875 #
-0.00024010337909037612 1:7.013073 2:-9.6092262 3:-8.3871584 4:-9.9006386 5:10.319306 6:10.472657 7:6.6333184 8:9.1849785 9:4.6051702 10:9.1846323 11:-10.573343 12:-9.6390333 13:9.5765858 14:-10.421819 15:-9.0300999 16:-8.3858433 17:9.0009928 18:-9.1988602 19:-10.284468 20:7.0174727 21:8.6887493 22:10.343335 23:9.6291838 24:9.6126795 25:-8.5605335 26:9.6635399 27:-9.0185137 28:10.704418 29:9.6770754 30:-9.6114388 31:10.290758 32:6.2848125 33:-9.1015892 34:-9.6968937 35:9.3196201 36:6.4404149 37:-9.1296387 38:-6.4788938 39:9.3183556 40:5.7085333 41:-9.8242073 42:10.58017 43:-10.457206 44:10.46105 45:10.129752 46:10.326063 47:-10.576085 48:-10.574128 49:-10.132498 50:10.589774 51:9.1584196 52:-10.585854 53:-11.012658 54:10.580416 55:10.729733 56:-10.699388 57:-9.1740961 58:-10.443539 59:-9.6023502 60:-10.464985 #
-0.00024010337909037612 1:8.7381096 2:-8.3858433 3:8.5067635 4:-8.1832457 5:6.6333184 6:6.3032846 7:6.5136538 8:-10.286802 9:8.3450212 10:9.9402113 11:9.9313393 12:-7.2231274 13:8.4537144 14:-8.2355452 15:-9.9349613 16:-8.7429924 17:8.1974039 18:8.7381916 19:-8.3779182 20:-9.5226679 21:10.313032 22:-9.2588749 23:8.7873821 24:-8.2702265 25:8.5412359 26:-8.5214357 27:-7.2993217 28:8.8156796 29:8.6940842 30:-9.1131668 31:-5.6347895 32:-9.9267168 33:-8.1952372 34:-8.7908497 35:9.1154184 36:-10.283701 37:7.2938013 38:10.279655 39:6.1439242 40:9.7021036 41:-8.7486897 42:9.9515467 43:6.8193922 44:8.6899977 45:8.559145 46:9.271697 47:7.3383732 48:6.5964036 49:-8.7102613 50:-8.9086313 51:-9.9241858 52:-9.6302652 53:9.6711407 54:-9.6708193 55:8.6897736 56:9.9453936 57:-8.7682199 58:-9.0623426 59:-8.719224 60:-10.275702 #
-0.00024010337909037612 1:6.6333184 2:4.8741918 3:8.5605335 4:6.6870594 5:6.3032846 6:-8.1992359 7:-8.375577 8:8.3858433 9:9.2151594 10:-6.2230339 11:7.1150584 12:-6.3763523 13:8.5818157 14:-9.0537682 15:-8.3256025 16:6.3514671 17:-4.89221 18:-10.652323 19:-8.9714718 20:9.0414124 21:8.5368986 22:-8.211606 23:5.2497835 24:6.1006365 25:-9.5159044 26:-4.1588459 27:8.5740404 28:9.0678482 29:6.8101249 30:5.8635268 31:-8.411602 32:-8.4008236 33:-5.5750017 34:-9.0738325 35:-8.9381952 36:-6.597105 37:-8.3380213 38:10.384283 39:10.655914 40:5.9706297 41:-9.6401424 42:-8.2339029 43:-8.4605284 44:8.4083214 45:9.2583876 46:5.8328781 47:-9.3015938 48:-8.2992945 49:-9.1689234 50:10.521946 51:-10.657993 52:-9.1463003 53:8.9946537 54:9.0533867 55:9.740489 56:8.0547523 57:-9.9960566 58:-10.182431 59:-9.10989 60:6.0503221 #
-0.00024010337909037612 1:6.6333184 2:-8.6247091 3:8.488122 4:9.1989336 5:-9.1435118 6:9.6199379 7:-8.3566341 8:8.3858433 9:-9.2819691 10:-9.5639725 11:-9.08253 12:8.432066 13:-8.3183908 14:-6.9624753 15:-9.8995714 16:9.1787624 17:-8.6437473 18:-8.5927744 19:9.3087988 20:-9.0345211 21:-9.6900654 22:8.5854607 23:9.167119 24:5.6890626 25:9.0341883 26:-9.0523577 27:9.033246 28:6.2464809 29:9.8803568 30:-6.0334353 31:-9.8813219 32:-9.0181332 33:9.3299446 34:7.0437055 35:-9.0186529 36:-8.364028 37:8.4617014 38:10.416492 39:8.710721 40:4.6333146 41:-9.8362246 42:-9.0854321 43:-8.19872 44:9.9078503 45:-7.0212255 46:8.383585 47:-9.4486427 48:-4.6536355 49:-9.7994347 50:10.080037 51:-9.1171122 52:9.577281 53:8.4375267 54:9.2817907 55:9.975153 56:-9.1140957 57:-9.2658215 58:-9.6100578 59:-8.3525553 60:6.144105 #
-0.00024010337909037612 1:5.1492658 2:7.1566811 3:8.6128654 4:8.562253 5:6.6333184 6:7.2356062 7:-8.3566341 8:8.3858433 9:-9.2130327 10:-9.0655317 11:9.1578703 12:-9.1681232 13:-9.2310419 14:9.1103172 15:-9.5691824 16:8.3545914 17:-9.0337839 18:10.298821 19:10.442449 20:5.721252 21:-8.3196926 22:8.6014051 23:6.776053 24:9.2028275 25:-6.5303521 26:6.6863508 27:-6.9306121 28:9.8732681 29:9.5405245 30:8.9315529 31:-10.580865 32:8.6878929 33:-8.6192369 34:10.443146 35:-10.439501 36:7.3879228 37:-10.448274 38:-9.5608339 39:-9.5717468 40:9.1203365 41:-7.096498 42:-8.3645802 43:-8.6743402 44:5.2303348 45:-9.1302338 46:6.8714824 47:-6.3634791 48:-7.3871698 49:-8.0372858 50:9.7470293 51:-5.0092211 52:-8.9305086 53:8.4391642 54:-9.0414 55:-9.8928738 56:-8.5560341 57:-7.2960014 58:-5.0189342 59:-8.2895756 60:6.3063555 #
-0.00010630695610877979 1:6.6333184 2:8.6267624 3:8.5605335 4:8.6270027 5:-9.6475325 6:-8.1992359 7:-8.2763329 8:8.3858433 9:10.840469 10:-8.1755018 11:6.7145171 12:8.4491377 13:-8.6128016 14:-10.841555 15:-8.3256025 16:-9.1882553 17:-9.1908302 18:6.0293732 19:-8.3964968 20:-8.4306393 21:-10.632048 22:9.9632015 23:9.2042494 24:8.5289431 25:9.961607 26:-8.6042395 27:-10.101382 28:8.6510658 29:7.2303963 30:10.314893 31:-9.1805906 32:10.307232 33:-10.147226 34:10.829431 35:-10.302334 36:-10.830331 37:10.508891 38:10.135783 39:-10.635689 40:10.734874 41:-10.450555 42:-8.3892145 43:-8.0773468 44:7.3015842 45:-9.9565706 46:-8.2854185 47:10.316938 48:-8.2992945 49:-10.308699 50:10.85178 51:-10.847419 52:9.9662895 53:8.5636435 54:9.7272215 55:-10.336365 56:-9.9457369 57:9.7112093 58:10.63237 59:-10.318799 60:8.4339657 #
-0.00024010337909037612 1:-8.300806 2:-8.2492847 3:-8.3858433 4:8.5843029 5:8.4537144 6:8.2672329 7:-9.1656561 8:9.1109266 9:6.6333184 10:8.3790426 11:6.5712829 12:-8.1943226 13:8.5023861 14:-8.1540604 15:-9.932869 16:8.5363808 17:-8.3444214 18:9.2390413 19:8.0594435 20:8.3711748 21:7.2450871 22:8.6101198 23:1.8396113 24:9.4931889 25:-8.1966276 26:-9.5407963 27:-9.0165119 28:6.9782853 29:-8.2819748 30:-9.1064177 31:-6.2757702 32:-9.6252146 33:-6.8336096 34:6.6944003 35:-9.0901403 36:-5.6185284 37:-10.622941 38:9.8710737 39:-8.197979 40:-9.1111021 41:-7.3405342 42:-8.4201126 43:-9.0985823 44:8.5717945 45:-8.5632505 46:9.1152048 47:-9.1915226 48:-8.2817726 49:-9.6296186 50:10.143381 51:-8.1336231 52:8.3701887 53:9.1147747 54:9.1156263 55:9.6400061 56:-10.096745 57:-9.268919 58:10.418444 59:-9.1388865 60:9.188117 #
-0.00024010337909037612 1:6.6333184 2:-10.168177 3:-10.237029 4:-8.3858433 5:10.218031 6:-10.209384 7:-10.195212 8:-10.146613 9:10.203583 10:10.226284 11:10.193213 12:-10.22266 13:10.222132 14:10.245634 15:10.219425 16:10.205213 17:10.202541 18:-10.231495 19:10.236794 20:-10.188182 21:8.6887493 22:-11.179481 23:-10.167547 24:10.267099 25:-10.13138 26:-10.140922 27:-10.142802 28:10.179164 29:-11.376114 30:-10.255301 31:-11.419204 32:10.193546 33:10.213756 34:10.253304 35:10.221265 36:-8.5605335 37:-10.220815 38:11.323891 39:11.388535 40:7.3531609 41:-9.6415014 42:10.214668 43:-10.244946 44:10.231934 45:10.214521 46:-11.173865 47:10.252085 48:-10.214812 49:11.323782 50:10.842454 51:-11.170836 52:-10.489532 53:-10.332982 54:-10.225521 55:11.17555 56:-10.945057 57:11.175081 58:11.175865 59:10.252 60:-10.256249 #
-0.00024010337909037612 1:-2.6300001 2:1.03 3:0.27000001 4:2.3299999 5:1.0599999 6:-0.17 7:2.0599999 8:-0.33000001 9:-0.83999997 10:-4.0300002 11:4.4000001 12:-0.34 13:1.3099999 14:-1.0700001 15:-0.34999999 16:2.1300001 17:3.5799999 18:6.4499998 19:-5.46 20:-0.91000003 21:-0.72000003 22:-3.79 23:6.6399999 24:4.6999998 25:8.1599998 26:-0.47999999 27:-0.66000003 28:0.40000001 29:-1.09 30:-0.60000002 31:1.8 32:-6.6199999 33:6.6799998 34:-1.12 35:-7.1100001 36:4.7199998 37:0.88999999 38:4.2399998 39:6.0999999 40:-16 41:16 42:-1.84 43:-8.1899996 44:1.17 45:16 46:2.45 47:-7.8000002 48:-3.7 49:-7.8899999 50:7.8000002 51:9.0500002 52:-5.4499998 53:-6.6199999 54:-9.3100004 55:-3 57:-6.5500002 58:-16 59:7.5 60:7.77 #
-0.00014198689728868018 1:-8.3458023 2:8.5481329 3:-8.3913031 4:8.6191607 5:-8.3969231 6:8.6213932 7:6.6333184 8:8.574337 9:8.7938299 10:8.5077629 11:8.386198 12:-4.8359146 13:-8.6701212 14:-9.2773142 15:-8.345562 16:-6.1278763 17:8.4753447 18:-8.4025774 19:-8.2583866 20:8.3858433 21:10.46098 22:8.6694422 23:-10.98103 24:10.975652 25:-10.471542 26:-10.473081 27:-9.8974657 28:6.7413073 29:8.3576355 30:8.3706264 31:-9.5259256 32:9.9159765 33:-10.874745 34:-9.0598516 35:-8.4920874 36:-8.3000937 37:10.45525 38:10.867744 39:8.4614735 40:-10.96489 41:10.880773 42:-8.539113 43:-8.4164457 44:9.2657328 45:-9.0654001 46:-8.2936316 47:5.5302501 48:8.2602539 49:-9.192071 50:10.629492 51:-9.248126 52:-10.631085 53:-8.4180498 54:8.2278948 55:9.5757627 56:8.5195742 57:-9.9232855 58:-6.4297194 59:-8.4024897 60:6.6463904 #
-0.00011912472999775964 1:6.6333184 2:-8.3913031 3:9.6177044 4:7.0392122 5:8.7938299 6:-9.0250998 7:-9.5594091 8:8.3858433 9:-9.1815233 10:-9.5386076 11:9.0564032 12:8.2294197 13:-9.5568848 14:9.1524811 15:-8.2061548 16:9.1190329 17:9.1458902 18:8.3289099 19:8.3084612 20:-9.5465145 21:-9.0766191 22:6.6169915 23:9.5261831 24:9.4955416 25:-8.5144787 26:-8.5319023 27:-8.5478811 28:-8.5086517 29:6.5910854 30:6.3102894 31:-9.547575 32:-8.553587 33:-8.5052776 34:8.4904842 35:-9.5261192 36:-9.5123177 37:4.900527 38:9.8619003 39:6.3623896 40:9.0477591 41:5.8861041 42:-8.4988489 43:-6.1967864 44:8.4140291 45:9.8894053 46:9.5166235 47:-8.4729471 48:8.5920849 49:-8.4966354 50:-8.3132534 51:-8.3639879 52:7.3905797 53:9.1284609 54:9.5459099 55:-9.5488148 56:-9.5243921 57:-8.9754591 58:-9.1390371 59:-9.1193228 60:9.5176611 #
-0.00024010337909037612 1:-4.1933255 2:-8.1435614 3:-8.3858433 4:8.5003138 5:-6.3761272 6:8.6365509 7:8.4989958 8:8.4884167 9:6.6333184 10:-9.5597734 11:6.5712829 12:-8.3213749 13:8.1753731 14:-10.530478 15:-8.1584139 16:8.6823397 17:-8.6541786 18:10.537616 19:9.4824696 20:-8.4072361 21:8.3766785 22:9.553421 23:6.3514671 24:8.550169 25:-8.4946404 26:8.5791349 27:-8.5199852 28:-8.5338106 29:9.5250988 30:-9.0589447 31:9.609807 32:-4.5257015 33:-8.2773561 34:-9.5092106 35:-8.1004829 36:-8.3564682 37:5.6624994 38:-6.764895 39:9.0272589 40:-9.8610897 41:-6.5178246 42:8.5260849 43:-8.2025595 44:-8.3912172 45:9.9551105 46:9.0913486 47:8.1974411 48:4.2504883 49:-8.5277758 50:9.6750946 51:-9.9492912 52:8.6015882 53:8.7147474 54:5.5895643 55:-9.537056 56:4.9175081 57:-9.4714651 58:-8.1167183 59:-5.6493354 60:7.2575459 #
-0.00024010337909037612 1:6.6333184 2:-8.3913031 3:10.692665 4:8.6237822 5:8.7938299 6:10.317398 7:7.2074785 8:8.3858433 9:10.098079 10:10.336539 11:10.721663 12:-10.721722 13:8.6374817 14:8.4624577 15:-9.0584097 16:8.5966339 17:-10.125386 18:9.2628212 19:10.746588 20:-10.323148 21:10.728185 22:-10.721691 23:10.333537 24:10.702172 25:-9.2337437 26:-10.732978 27:-10.730866 28:-8.3791018 29:-10.727048 30:-8.2556629 31:10.103314 32:-10.692115 33:-10.808621 34:-10.686366 35:-10.31529 36:-10.313453 37:10.349808 38:10.174125 39:4.8470235 40:10.33291 41:10.732455 42:-9.0822096 43:10.740336 44:-10.728559 45:-10.343099 46:10.490524 47:10.759273 48:-10.108173 49:-10.741988 50:10.733071 51:-10.304709 52:10.745591 53:-10.094056 54:-9.7435894 55:-10.688492 56:9.745615 57:-10.086556 58:10.631247 59:-10.682837 60:9.8404799 #
-0.00024010337909037612 1:-8.282486 2:-8.3028412 3:9.0400858 4:9.1414003 5:6.6333184 6:9.0947208 7:-8.3566341 8:8.3858433 9:-8.3610497 10:-9.0237331 11:9.0631571 12:-9.1193714 13:-9.1377411 14:-10.15645 15:-9.8831511 16:8.3545914 17:-8.2183523 18:-10.161521 19:8.6374435 20:-8.0692358 21:-9.126586 22:-8.2153053 23:8.5203533 24:8.3013439 25:-9.1452818 26:9.9406252 27:-10.151615 28:-8.1807384 29:10.178844 30:8.3204708 31:9.9557056 32:-5.7816248 33:-8.4097881 34:8.1985903 35:-9.672225 36:-8.3419342 37:9.7241497 38:9.9208775 39:6.5589857 40:9.720356 41:-7.2606001 42:-8.2968874 43:-9.7388563 44:9.9694872 45:9.7362556 46:9.1334267 47:-6.1990032 48:-9.9542913 49:6.3410239 50:-8.4241629 51:-8.3157005 52:8.4869003 53:8.3439217 54:8.6197634 55:-6.673614 56:9.9183178 57:-8.7058506 58:-8.57971 59:-8.4153833 60:8.5349607 #
-0.00024010337909037612 1:-8.2277184 2:8.7030859 3:9.2796745 4:8.6887493 5:-8.5728464 6:8.4790363 7:9.3241262 8:8.1884918 9:6.6333184 10:-9.206604 11:9.2046223 12:7.1191359 13:-8.452466 14:-8.3851385 15:-6.3825407 16:0 17:-9.1940784 18:9.6948881 19:8.500598 20:-8.2832174 21:9.2003775 22:-9.1323919 23:6.4404149 24:-8.393856 25:6.5652652 26:-8.5598421 27:-9.1781244 28:9.6613235 29:8.5064831 30:-8.4706097 31:-9.1982985 32:-10.07362 33:-8.4448204 34:9.2336388 35:-9.2226458 36:-8.1760788 37:-9.6647263 38:10.406703 39:8.5745134 40:9.9038858 41:-9.6171207 42:-8.6005306 43:-9.2147198 44:9.7359867 45:10.632649 46:9.1123848 47:9.1967993 48:-8.3929653 49:-9.183589 50:9.2556906 51:-9.2102585 52:8.3942995 53:-10.282671 54:8.4839869 55:10.414575 56:8.4629822 57:-9.6486311 58:-3.8647156 59:-8.2451658 60:8.286478 #
-0.0002385138123366957 1:8.7938299 2:-8.3913031 3:6.1430144 4:8.5130196 5:6.6333184 6:-9.0231428 7:-8.1561699 8:8.3858433 9:8.6168671 10:-9.0310688 11:7.1653142 12:-8.4981899 13:-8.4323301 14:-9.2744007 15:-8.481926 16:-8.3074055 17:-9.0998859 18:9.3039923 19:8.5457897 20:9.1248875 21:8.504096 22:-8.5600653 23:8.5151024 24:9.5103598 25:-9.6148319 26:9.5317822 27:-8.2702265 28:-9.2244577 29:8.7367516 30:-8.2143621 31:7.1802287 32:-9.5705023 33:-9.5286579 34:6.9664345 35:-8.9988899 36:-8.2473564 37:8.0697279 38:8.6177597 39:8.6407394 40:-6.8872237 41:-9.5190697 42:8.1790733 43:-9.5448227 44:8.5648508 45:-6.6680694 46:-8.5112438 47:9.0859594 48:-8.1644506 49:-9.1916027 50:9.6403103 51:-9.2315836 52:6.0402546 53:7.5427971 54:8.361414 55:9.1051693 56:8.6885386 57:-9.2971535 58:9.0243568 59:-9.0917797 60:8.4780521 #
-0.00022596768225522615 1:-8.300806 2:8.5415668 3:-8.3858433 4:8.4226999 5:-8.424367 6:8.4301662 7:8.4291506 8:9.1172686 9:6.6333184 10:8.3790426 11:6.5712829 12:9.2094221 13:-8.5282974 14:-8.756794 15:8.5419083 16:8.3437414 17:-8.3444214 18:9.5284748 19:-10.279256 20:8.5480165 21:-9.8763056 22:8.6607637 23:9.6935015 24:10.103395 25:10.254648 26:10.567651 27:-9.5746593 28:8.7239428 29:10.268511 30:-8.7016525 31:-10.557385 32:9.5682936 33:-9.5203657 34:-9.4573231 35:10.423596 36:-8.2855358 37:9.5087452 38:-9.069047 39:9.4560099 40:-9.836668 41:-10.440914 42:-8.5782967 43:-8.7402086 44:-9.0817175 45:10.487337 46:9.1828833 47:-10.551292 48:-10.245717 49:-10.269646 50:10.259188 51:-9.6050043 52:10.269935 53:9.6979342 54:-10.554878 55:-9.2080078 56:-9.8565817 57:-10.67593 58:10.635268 59:-10.277208 60:10.487883 #
-0.00024010337909037612 1:-8.2277184 2:8.7030859 3:-8.1507568 4:8.6887493 5:-6.3953409 6:9.147809 7:8.5225096 8:8.5241003 9:6.6333184 10:-9.8241482 11:8.4801607 12:-9.6037979 13:-6.5194941 14:9.2302694 15:-6.1737862 16:0 17:-8.460701 18:9.1182899 19:-8.3844252 20:6.1391006 21:-9.1977835 22:9.617034 23:6.4404149 24:-8.393856 25:-9.9275942 26:-8.5598421 27:-8.4288931 28:-8.2285757 29:8.3540382 30:8.5164528 31:-9.9102716 32:-8.1905937 33:-8.5130854 34:8.6965084 35:9.9092035 36:-8.1760788 37:-9.5032701 38:9.1512165 39:-9.1750231 40:8.2248468 41:-9.1145649 42:-8.6005306 43:-9.1484995 44:9.2125759 45:8.852953 46:8.1441164 47:9.8885241 48:-9.1941261 49:-9.1743059 50:10.306047 51:-9.937149 52:9.131547 53:9.6143141 54:9.1523886 55:-9.5626802 56:-9.0919113 57:7.5466442 58:-9.0773668 59:-9.8889103 60:8.286478 #
-0.00024010337909037612 1:8.7938299 2:-8.3913031 3:8.5585032 4:8.5246849 5:6.6333184 6:5.1357985 7:-7.0141106 8:8.3858433 9:-6.9848995 10:8.4666367 11:8.2953625 12:-8.308198 13:6.4666629 14:-9.765872 15:-6.7455525 16:8.5969877 17:-8.2758684 18:8.7712069 19:-6.8293581 20:9.6707792 21:-9.6840057 22:7.1772499 23:8.271677 24:-8.296339 25:-7.4071784 26:8.3471613 27:-8.1958094 28:7.1111813 29:6.4414539 30:6.4059796 31:-8.5539064 32:6.4746027 33:-8.406333 34:-7.1809583 35:-8.4207535 36:-8.4639788 37:-8.8241949 38:10.23331 39:7.2627363 40:7.3602114 41:-7.4314785 42:-8.2780457 43:5.5919662 44:6.1983991 45:-8.9084911 46:3.5625372 47:-8.1989164 48:-8.1137524 49:-6.4907446 50:8.6677904 51:-8.7375813 52:7.1904211 53:7.0995259 54:6.672441 55:-8.723299 56:-9.6404314 57:-7.1050682 58:-7.0500388 59:-8.8115635 60:7.2396288 #
0.00024010337909037612 1:-0.58999997 2:-0.63 3:0.20999999 4:0.88999999 5:-0.36000001 6:-1.38 7:-0.14 8:-0.68000001 9:-0.63 10:-1.7 11:1.98 12:-3.0799999 13:-2.0799999 14:0.55000001 15:1.6900001 16:2.6700001 17:-1.12 18:1.59 19:-0.80000001 20:0.66000003 21:14.12 22:-1.6799999 23:2.1400001 24:-2.0899999 25:-9.9499998 26:3.02 27:2.79 28:-2.9100001 29:1.39 30:0.38999999 32:13.52 33:15.77 34:-12.95 35:-3.52 36:-2.8900001 37:13.99 40:-15.14 41:-14.27 42:0.69999999 43:-3.1199999 44:6.98 45:10.88 46:2.6900001 47:-20 48:-2.6600001 49:20 50:20 51:-20 52:1.38 53:-14.41 54:3.8599999 55:11.84 56:10.01 57:-1.8200001 58:-12.06 59:2.8299999 60:-7.0700002 #
0.00024010337909037612 1:6.6333184 2:-10.435766 3:-8.2186918 4:-8.3858433 5:10.567546 6:8.4742117 7:-10.571199 8:-10.560845 9:10.300353 10:-4.8624644 11:10.324116 12:10.309466 13:9.9435024 14:-10.305713 15:10.113099 16:8.5063362 17:10.438881 18:-10.561365 19:-9.8935938 20:-6.5047517 21:8.6887493 22:-10.57414 23:-9.9023294 24:6.5738921 25:6.4404149 26:-8.3064651 27:-10.454424 28:10.338178 29:10.333337 30:-8.4272308 31:-9.5223389 32:10.442254 33:-10.551406 34:-10.458155 35:10.462475 36:-8.5605335 37:-8.3452034 38:10.309718 39:10.572565 40:8.5438766 41:-9.0886812 42:-10.581495 43:-10.138208 44:10.166184 45:9.8977623 46:9.9098511 47:-10.306764 48:-10.456224 49:-10.102448 50:-9.1983538 51:10.132622 52:-8.3633633 53:-10.313328 54:10.578778 55:9.6712847 56:9.2096615 57:-10.45498 58:6.548398 59:-8.4275417 60:-5.1341228 #
0.00024010337909037612 1:6.5136538 2:9.8198776 3:-8.3858433 4:-8.4506769 5:8.3450212 6:9.8514929 7:-10.046519 8:-8.2303104 9:6.6333184 10:-9.8134804 11:9.1618166 12:-10.045339 13:-10.137158 14:-9.8509331 15:-9.8308048 16:8.4436159 17:10.077699 18:-10.126838 19:-9.5446396 20:9.8071985 21:8.3651037 22:-9.6085434 23:9.8065825 24:-8.4607134 25:-8.3212557 26:-8.1698971 27:-9.5277739 28:-6.7753973 29:9.8127975 30:-9.8068523 31:8.5858202 32:-8.5699749 33:9.5049105 34:-9.8218002 35:9.8512096 36:-9.5348892 37:-9.5485191 38:8.5431576 39:10.126633 40:-6.2580624 41:-9.1908541 42:9.5577745 43:-9.850934 44:9.207612 45:9.25282 46:9.8932762 47:9.1751547 48:9.493494 49:-9.8170433 50:-8.4448404 51:9.8911695 52:9.4851446 53:9.8270426 54:9.7258406 55:8.7432299 56:-10.076449 57:-10.042187 58:-6.7415533 59:9.5463371 60:-9.5429459 #
3.5824596871746033e-005 1:-2.2 2:0.91000003 3:0.02 4:2.05 5:1.22 6:-0.47 7:1.33 8:-0.63999999 9:-1.08 10:-9.3400002 11:12.16 12:11.68 13:0.76999998 14:-2.51 15:-0.34999999 16:5.0900002 17:2.8800001 18:-1.48 19:-0.2 20:-0.86000001 21:1.7 22:7.77 23:11.66 24:1.66 25:-1.7 26:-6.6300001 27:-3.45 28:1.02 29:0.02 30:-1.67 31:-15.37 32:7.0999999 33:5.8000002 34:-14.52 35:-9.3999996 36:0.27000001 37:11.63 38:28 39:3.28 41:-6 42:-1.1900001 43:-7.3800001 44:9.4499998 46:7.1599998 47:-1.47 48:-2.0899999 49:28 50:-28 51:7.6199999 52:0.13 53:-12.82 54:-10.05 55:-11.13 56:-10.85 57:16.700001 58:11.88 59:-9.54 60:-6.0100002 #
0.00024010337909037612 1:-8.2399035 2:-8.3858433 3:8.6315956 4:-8.3662224 5:6.6333184 6:-8.3686781 7:-8.4795132 8:-10.052641 9:8.4593878 10:-5.7923622 11:9.2370586 12:9.9960337 13:8.3790426 14:6.5712829 15:-8.2832708 16:-8.4898891 17:8.4004736 18:6.8029375 19:-8.1443396 20:-9.223134 21:4.931757 22:9.5719538 23:6.4871764 24:-4.610188 25:-9.1247101 26:-8.4432621 27:-9.2435465 28:8.3892794 29:8.6265707 30:-8.3301077 31:6.956243 32:8.6799011 33:9.8977413 34:-8.9835854 35:9.2667828 36:-8.4946804 37:-10.006692 38:8.8549519 39:6.3131166 40:6.5000296 41:-9.8907709 42:9.9110222 43:-9.2111826 44:9.0087204 45:9.7186728 46:8.5532465 47:-10.100701 48:-9.5845289 49:8.5870752 50:-9.3044329 51:9.5770521 52:9.31534 53:-9.6551952 54:6.6226778 55:6.5321522 56:8.6511946 57:-9.3054571 58:-7.069984 59:-9.3041801 60:-9.6527472 #
-0.00024010337909037612 1:6.57616 2:-8.2446108 3:-3.6888795 4:-9.4741745 5:8.2582569 6:-8.4845457 7:8.159997 8:-9.0703077 9:6.6333184 10:9.0421934 11:-10.346863 12:-8.627039 13:8.6849165 14:-8.5543213 15:-4.428988 16:0 17:8.5076761 18:-8.484973 19:-8.1143427 20:-8.2951517 21:8.5852966 22:6.0822434 23:-8.40734 24:8.5714684 25:-8.4573689 26:-8.2301922 27:-8.1080456 28:8.6693773 29:-8.5839615 30:-3.4558702 31:6.1125212 32:6.4404149 33:8.2829466 34:-10.465236 35:-9.6488104 36:-8.1860609 37:-8.267086 38:10.343463 39:4.8645816 40:-8.380805 41:-9.1842194 42:8.4214277 43:-8.6267023 44:8.6145926 45:9.5017643 46:9.3672972 47:-9.4990206 48:8.2565098 49:-9.105545 50:10.319027 51:4.3881159 52:-8.2345152 53:-9.6534348 54:8.4887619 55:9.2463789 56:-8.6402407 57:-9.0584564 58:10.628783 59:-8.2083464 60:-8.4937096 #
-0.00024010337909037612 1:6.57616 2:9.7248831 3:-8.2760448 4:-9.084795 5:6.4493761 6:-3.6888795 7:-10.132194 8:-9.7388668 9:6.6333184 10:8.6461372 11:-7.2639594 12:4.8065906 13:8.5422544 14:-9.1204605 15:7.2903728 16:0 17:6.0953813 18:9.665122 19:-9.710741 20:9.0701723 21:8.3321447 22:-5.7308531 23:8.4753408 24:6.7078195 25:-8.2434292 26:-8.6095419 27:4.7874918 28:6.7137303 29:6.6885381 30:-6.3338714 31:-8.8417511 32:5.1895471 33:9.1753311 34:-8.4091339 35:6.9637055 36:-8.1860609 37:-9.721714 38:10.615072 39:7.5830522 40:9.6999731 41:-8.5744162 42:6.5415111 43:-8.6704397 44:6.0447917 45:9.9551201 46:7.3010211 47:-9.9739819 48:6.8224411 49:9.7226276 50:-8.6407413 51:9.6975555 52:-6.1377578 53:-10.666183 54:-6.2208643 55:7.8868413 56:-8.7567434 57:-8.4043102 58:9.4361849 59:-3.9272947 60:6.5930448 #
-0.00024010337909037612 1:6.57616 2:8.9969978 3:-3.6888795 4:-9.8726206 5:9.9256039 6:9.5033464 7:-9.1103621 8:-8.647192 9:6.6333184 10:-9.50385 11:-10.071326 12:-8.2361984 13:9.2652798 14:-9.2617579 15:2.3025851 16:0 17:8.6440258 18:-9.0464163 19:9.1169252 20:-9.0944395 21:8.3095465 22:-8.6685476 23:-8.4204998 24:9.5095196 25:-8.2247238 26:-9.0993052 27:-9.2198362 28:-9.7226763 29:6.75245 30:-9.283144 31:9.7033348 32:8.5488081 33:9.0999775 34:-4.3820267 35:8.2554798 36:-8.1860609 37:-9.0990305 38:8.773632 39:2.9392397 40:-6.8554235 41:-9.5259047 42:9.2405529 43:-9.2654495 44:9.6802568 45:10.076715 46:9.2837429 47:-10.23039 48:-9.697155 49:-8.2220449 50:-4.3820267 51:-7.0251083 52:-9.6946287 53:9.8802147 54:8.6157808 55:9.5302963 56:8.5510941 57:-9.928607 58:10.178905 59:-9.4934835 60:9.156312 #
0.00024010337909037612 1:-8.1822424 2:8.5171795 3:-8.3545914 4:8.6887493 5:-8.1500235 6:9.1784306 7:8.5383844 8:9.1670351 9:6.6333184 10:-8.5065947 11:8.4941311 12:9.8273592 13:8.5206051 14:-9.1691151 15:-8.5886097 16:0 17:-9.0866995 18:6.2245584 19:9.0777941 20:8.7060804 21:-3.6888795 22:9.1436872 23:6.4404149 24:8.5599308 25:-9.1290455 26:-7.1613173 27:-9.1292686 28:9.1173363 29:8.7203131 30:9.1141396 31:-8.5290842 32:9.1395979 33:-9.0198345 34:8.5953703 35:9.1630754 36:-8.4566002 37:8.1105223 38:9.0251551 39:9.1881981 40:-10.073887 41:-9.1138096 42:-8.6005306 43:-9.0392323 44:-8.5006313 45:9.1449375 46:-9.5142775 47:-9.6768026 48:-9.1292009 49:-9.0548172 50:9.8542633 51:-9.1576738 52:9.2397318 53:-9.1737041 54:9.6805458 55:-9.8147488 56:-9.6060381 57:8.8612537 58:-9.1214209 59:-9.0086203 60:9.1323442 #
0.00024010337909037612 1:-8.3016996 2:7.1751575 3:-8.3913031 4:8.6191607 5:-6.4293346 6:8.6213932 7:6.6333184 8:6.5440917 9:8.7938299 10:-9.0249758 11:8.2378769 12:-5.586123 13:-5.8063283 14:-7.7398348 15:-4.8655534 16:9.1865253 17:-9.1919508 18:8.9453812 19:8.6460495 20:8.3858433 21:-9.0672407 22:7.3766985 23:9.2693014 24:8.2354269 25:-9.0007267 26:-8.633255 27:-8.9388313 28:7.3151202 29:6.4426308 30:8.1463127 31:7.4133611 32:-7.2118464 33:9.0065336 34:-8.8068104 35:-8.2447672 36:-7.1810579 37:5.6923833 38:8.3333912 39:7.7496362 40:7.3467731 41:-8.1873894 42:-6.67803 43:-8.3447456 44:7.1695595 45:9.6226015 46:-8.2936316 47:-5.9237876 48:-7.1160913 49:-8.6596155 50:6.9601107 51:-8.9210701 52:4.9139166 53:9.2521839 54:7.2374105 55:-9.6710711 56:-9.0506573 57:-9.6160164 58:-9.0687075 59:-8.2464066 60:6.6463904 #
0.00024010337909037612 1:8.7938299 2:-8.3913031 3:8.5234947 4:8.5765076 5:6.6333184 6:8.6213932 7:-8.5434675 8:8.3858433 9:-9.1758165 10:8.6687813 11:8.6645021 12:-8.1486807 13:-8.3138189 14:-8.2396555 15:-8.7355614 16:8.6191607 17:8.5474863 18:-10.089198 19:-8.3964882 20:8.3733845 21:-8.5693789 22:9.9798126 23:8.7923965 24:8.2855911 25:-9.1227789 26:-8.49792 27:8.5183973 28:9.9456072 29:-8.4009256 30:9.0483055 31:-10.280297 32:-9.9156504 33:-8.4371367 34:-5.902986 35:-8.1972895 36:-8.2367001 37:9.9490528 38:-8.4116316 39:-8.3979044 40:6.3654881 41:-9.1664562 42:-8.2435398 43:-8.2208872 44:-10.098692 45:9.7169104 46:9.8899298 47:-8.4820652 48:-8.3447952 49:-9.1030502 50:9.6948767 51:-10.109469 52:-10.439057 53:10.145249 54:10.278817 55:-9.9200811 56:9.6264791 57:-10.436146 58:10.381899 59:-8.3606148 60:-10.601823 #
-0.00024010337909037612 1:-6.3338714 2:9.5523758 3:4.6051702 4:6.3802094 5:-8.3566341 6:9.9709311 7:6.6333184 8:8.4964466 9:8.1561079 10:-8.1619148 11:8.5060949 12:8.2526388 13:-9.007555 14:-5.0281925 15:-8.140027 16:8.4850893 17:8.5700817 18:-6.4957266 19:8.6700516 20:8.3858433 21:-8.144022 22:9.7130804 23:8.5477858 24:8.6198606 25:-9.4757509 26:-9.7313614 27:6.9136767 28:8.6859322 29:8.7188139 30:8.2000504 31:-9.9322968 32:-8.437851 33:-8.6078224 34:6.2152095 35:-9.4709196 36:8.2274303 37:-9.235321 38:-7.1305747 39:6.7710891 40:-8.4305601 41:-9.4968672 42:-8.3176003 43:-8.3503036 44:5.826252 45:9.9674692 46:9.5737953 47:-9.4787846 48:-8.4400091 49:-8.2570648 50:10.627133 51:-9.0488195 52:-9.063592 53:9.6373415 54:-8.3769102 55:-8.5876265 56:-9.9555445 57:-10.629161 58:-9.6472025 59:-8.3114195 60:-8.3633099 #
-0.00024010337909037612 1:-8.300806 2:-8.182374 3:-8.3858433 4:8.5958433 5:8.4184389 6:9.7125816 7:-9.6783981 8:8.1263561 9:6.6333184 10:8.3790426 11:6.5712829 12:-9.6971102 13:-8.3405085 14:-8.1297674 15:-8.4106207 16:8.1559391 17:-8.5067739 18:-10.092643 19:9.6836853 20:10.12564 21:9.2740917 22:6.797297 23:9.7038164 24:-8.3167009 25:9.6775074 26:6.6416569 27:-9.6904135 28:8.6136065 29:8.1757898 30:8.3881855 31:-9.2190533 32:-10.31531 33:-8.692317 34:-8.5070906 35:-10.121873 36:-9.6291246 37:8.7211962 38:10.011606 39:8.2182779 40:9.8889198 41:-10.318546 42:-8.5095749 43:-9.7021751 44:8.7595663 45:-8.4024982 46:-8.3213358 47:-8.3643837 48:-10.122338 49:-9.2923899 50:9.7130737 51:-9.0642586 52:9.6885195 53:8.5003138 54:10.317427 55:9.9438181 56:8.7150412 57:6.8003092 58:-6.6966424 59:-9.6981192 60:8.2882414 #
-0.00024010337909037612 1:-8.3450212 2:-9.1078024 3:4.6051702 4:8.6256218 5:-8.3566341 6:6.3550386 7:6.6333184 8:6.4724374 9:-8.2369947 10:-8.5000334 11:8.478013 12:9.2275887 13:-9.1035471 14:-8.3717661 15:-8.4388475 16:6.4343171 17:-9.1020517 18:6.7298374 19:-8.4046412 20:8.3858433 21:-8.4478655 22:9.1546755 23:8.4335022 24:6.4769726 25:-8.5954723 26:-3.8867052 27:-7.3493199 28:8.354846 29:9.0754309 30:-9.1764708 31:9.2441311 32:-9.2121353 33:7.2490096 34:-8.2798386 35:-8.4190149 36:-8.2508316 37:8.3012142 38:-8.6465406 39:8.8563795 40:9.5009384 41:-8.5808449 42:-8.4030857 43:-6.8309746 44:8.3858414 45:5.9751587 46:9.1269264 47:-8.1333208 48:7.3107901 49:-8.7435284 50:10.006962 51:7.0238724 52:8.466588 53:-9.0667953 54:9.0838356 55:-9.2272301 56:8.439497 57:-9.8951283 58:-9.8787432 59:-8.3130264 60:8.2518625 #
0.00024010337909037612 1:-1.8 2:1.59 3:0.37 4:2.55 5:0.91000003 6:-0.73000002 7:1.24 8:-0.0099999998 9:-1.12 10:-4.1799998 11:3.3900001 12:2.6600001 13:1.48 14:4.3699999 15:-0.52999997 16:2.21 17:3.46 18:2.23 19:-1.2 20:-1.01 21:16 22:-3.45 23:16 24:4.3000002 25:-16 26:3.8499999 27:-3.8699999 28:-0.33000001 29:-4.3800001 30:-0.73000002 31:2.02 32:-3.8099999 33:-2.0799999 34:16 35:3.3699999 36:-3.8599999 37:-16 38:-2.4000001 39:3.73 40:-16 41:4.1700001 42:-1.65 43:-3.0999999 44:6.27 45:16 46:-3.3399999 47:3.24 48:-3.54 49:16 50:-16 51:-16 52:0 53:-4.8299999 54:-3.9200001 55:16 56:-2.3399999 57:-16 58:2.3499999 59:-4.79 60:2.73 #
0.00024010337909037612 1:-1.95 2:1.11 3:-0.1 4:1.91 5:1.1900001 6:-0.11 7:1.95 8:-0.19 9:-0.83999997 10:-3.72 11:1.05 12:-0.49000001 13:1.64 14:0.41 15:0.079999998 16:2.1400001 17:3.99 18:-8 19:2.24 20:-1.23 21:4.4899998 22:-3.3900001 23:-6.6300001 24:4.5599999 25:6.9400001 26:5.3499999 27:-5.9899998 28:-0.44999999 29:-1 30:-0.69999999 31:-8 32:5.4699998 34:0.55000001 35:-0.38 36:-2.75 37:-8 38:8 39:8 40:8 42:-1.25 43:8 44:-4.5300002 45:-8 46:2.26 47:0.79000002 48:-3.4400001 49:-0.62 50:1.84 51:-7.25 52:1.1799999 53:-5.6599998 54:0.27000001 55:-8 56:-8 57:-1.12 58:8 59:-3.7 60:5.9200001 #
-0.0001897728950069779 1:0.88 2:7.3699999 3:5.1900001 4:0.15000001 5:4.1599998 6:-2.1500001 7:9.9799995 8:-7.46 9:7.6300001 10:-6.1399999 11:10.27 12:-9.79 13:8.6099997 14:-10.74 15:11.16 16:-12.79 17:14.48 18:-14.32 19:17.549999 20:-19.440001 21:17.16 22:-17.799999 23:14.12 24:-13.71 25:10.88 26:-11.73 27:10.45 28:-18.049999 29:11.68 30:-15.5 31:13.41 32:-21.23 33:19.860001 34:-19.77 35:18.620001 36:-22.76 37:24.85 38:-27.77 39:35.68 40:-42.66 41:41.16 42:-41.950001 43:42.939999 44:-51.310001 45:46.02 46:-45.639999 47:43.689999 #
0.00024010337909037612 1:6.6333184 2:-8.5017357 3:8.488122 4:8.4542322 5:8.5884085 6:-8.3320313 7:-8.3566341 8:8.3858433 9:8.6781969 10:8.5383453 11:8.1767054 12:-8.2496777 13:-7.0033598 14:8.6397705 15:-6.3099184 16:8.6668005 17:-8.6638145 18:-5.6580958 19:8.5923328 20:8.2196388 21:8.7328386 22:-8.7927732 23:8.5783644 24:6.8020363 25:-8.4222794 26:-8.1700182 27:-8.4379253 28:6.5455799 29:6.8449121 30:-8.1220465 31:-8.5225754 32:5.171299 33:-6.8546066 34:-5.2951875 35:-8.3202333 36:-8.3626442 37:-8.5254526 38:10.140504 39:7.2274766 40:8.3311901 41:-8.2056313 42:-8.6447639 43:6.8854752 44:5.4412313 45:-8.2077379 46:8.2590389 47:-9.2194862 48:-8.2775707 49:-9.0615549 50:9.1517315 51:-9.2377253 52:6.0083842 53:8.4986105 54:-6.96737 55:-8.6038179 56:8.6028929 57:-9.8764524 58:-8.6646605 59:9.8655243 60:8.1354361 #
0.00024010337909037612 1:7.0660706 2:-10.184223 3:8.6399755 4:8.6096888 5:6.6333184 6:-8.1611061 7:8.5375872 8:8.3858433 9:5.8667207 10:9.9910374 11:9.7097998 12:-10.171987 13:-10.158438 14:10.170433 15:-6.4638643 16:8.3878946 17:-10.189692 18:9.9837294 19:-9.9751034 20:-10.186726 21:-8.2390671 22:9.0322866 23:8.5155897 24:-8.3502464 25:10.125484 26:10.183922 27:10.179064 28:10.183256 29:9.6994915 30:-8.2992945 31:-10.012509 32:-10.180224 33:10.21015 34:-7.9621687 35:-9.6881895 36:-9.095952 37:9.6659594 38:8.2430363 39:8.1220207 40:-9.7324839 41:-10.333315 42:-9.713213 43:-10.011596 44:10.012247 45:9.7113476 46:10.188695 47:-10.157606 48:10.188495 49:-10.129702 50:9.9431963 51:-9.1758699 52:8.2318659 53:8.8524122 54:-8.7069159 55:-10.186175 56:9.7033978 57:-5.8808823 58:-7.2741971 59:-8.8993597 60:-8.6190376 #
0.00024010337909037612 1:-8.189477 2:-9.9087687 3:8.5564423 4:8.6887493 5:-9.4653387 6:10.838714 7:8.5841684 8:8.2523594 9:6.6333184 10:-8.4661055 11:3.6888795 12:10.462405 13:-9.0780678 14:9.938489 15:-8.2829771 16:0 17:-8.1772995 18:-10.471243 19:10.482777 20:-8.3545914 21:-9.8909063 22:9.9595098 23:6.4404149 24:10.602988 25:9.4896488 26:-9.9231138 27:9.9189482 28:9.220685 29:10.511329 30:8.3499165 31:-10.751494 32:-9.9051533 33:9.9403658 34:8.4658985 35:-8.4702063 36:8.3300095 37:-10.477674 38:10.54129 39:10.519469 40:10.168489 41:-9.1713247 42:-8.6005306 43:-8.0798111 44:8.1844683 45:10.490186 46:9.4693127 47:-8.3609819 48:-9.9161129 49:-9.5113373 50:9.9065104 51:-9.1838369 52:-10.209564 53:-10.606019 54:-10.526628 55:-10.638469 56:-10.944408 57:-10.189158 58:-10.184165 59:10.645635 60:10.199682 #
0.00024010337909037612 1:6.1430144 2:-8.2967224 3:-8.3913031 4:6.8723121 5:6.2409253 6:9.1576948 7:6.6333184 8:6.4350815 9:8.7938299 10:9.1382828 11:8.4953852 12:8.3412695 13:9.1563253 14:-9.1981354 15:-8.3870411 16:9.0776052 17:8.5756273 18:9.1530743 19:-9.5919552 20:8.3858433 21:-8.4080982 22:9.1274462 23:8.7525768 24:8.5969877 25:-9.0630474 26:-9.0395708 27:9.174387 28:9.5559063 29:9.7503271 30:-9.1115971 31:-9.7063742 32:-9.1694307 33:10.085613 34:8.875391 35:-9.5557547 36:-9.1026773 37:-8.7876148 38:-8.9290485 39:9.6097927 40:9.0499783 41:-10.053112 42:-9.1839037 43:-9.1751089 44:9.0081072 45:8.9191809 46:8.4115782 47:-9.1161814 48:8.468895 49:-9.1315365 50:8.6688738 51:-9.8956738 52:-9.772212 53:-9.5915022 54:9.8795671 55:9.5668316 56:8.3310995 57:-9.9067469 58:10.631035 59:-9.859024 60:-7.3048902 #
-0.00020470835198230862 1:-8.1894302 2:-8.220336 3:-8.2119293 4:8.6887493 5:8.5158243 6:8.471303 7:-9.506012 8:9.622345 9:6.6333184 10:-8.267333 11:6.6420588 12:8.2492895 13:9.5406981 14:9.8318281 15:-9.5311699 16:0 17:-8.2857246 18:6.6308484 19:-9.5898914 20:5.4679928 21:6.2915692 22:9.6606092 23:8.4921007 24:8.6183739 25:-9.8467808 26:9.5596075 27:-9.0936823 28:9.7067518 29:9.5968285 30:-10.28638 31:-9.6512928 32:9.5040483 33:-9.5706892 34:9.6519194 35:-9.5365839 36:-8.2698526 37:8.2259035 38:-6.6406016 39:9.1248846 40:-6.6562834 41:-9.5665302 42:-9.4826422 43:-9.8141394 44:-9.7687845 45:9.8517981 46:9.1933775 47:-8.4126949 48:8.4643402 49:-9.8465977 50:-5.4680443 51:9.5495214 52:9.6017132 53:9.1507616 54:8.7325373 55:-9.6276054 56:8.5105314 57:-9.8818426 58:9.0218821 59:-9.5553732 60:-7.1261158 #
-0.00024010337909037612 1:-8.5282307 2:-8.5481272 3:-8.3858433 4:8.5003138 5:9.5423975 6:9.2911444 7:9.5719767 8:8.5680199 9:6.6333184 10:-8.4321737 11:6.5712829 12:-8.1012621 13:8.4538145 14:-9.6512508 15:-9.5473099 16:8.6823397 17:9.5074978 18:8.5258589 19:-8.3646097 20:-8.4072361 21:8.3766785 22:8.2772856 23:9.2953978 24:-9.1442833 25:-9.2923326 26:8.1639929 27:9.5331326 28:-6.6406016 29:-8.3813276 30:-8.2325354 31:-9.2398176 32:9.5236912 33:-8.5492191 34:9.5569315 35:-9.0933084 36:-9.2101116 37:-9.9012957 38:9.9040461 39:8.5962267 40:8.5357761 41:-9.1459064 42:-9.5057631 43:-9.5724945 44:-8.2919817 45:9.9734173 46:9.2428446 47:-9.5161743 48:-9.5570917 49:6.7153835 50:-8.63799 51:-9.1853046 52:8.1071901 53:8.8331242 54:9.5819874 55:9.5853558 56:8.3651352 57:-9.600769 58:-9.5087538 59:-9.5569897 60:9.2640638 #
-0.00024010337909037612 1:-8.5253019 2:-8.4698133 3:8.5564423 4:8.6887493 5:-10.272891 6:8.6116409 7:-8.4539032 8:-8.5276003 9:6.6333184 10:-8.4029541 11:8.6885128 12:9.255372 13:-8.3336763 14:-6.7388692 15:-8.1770315 16:0 17:-9.5265703 18:8.3537369 19:-8.4834185 20:-8.3545914 21:8.5786018 22:7.3862906 23:6.4404149 24:-8.206605 25:-9.1187592 26:10.136774 27:-10.14264 28:5.8703122 29:8.5064182 30:9.5103703 31:-9.6467943 32:10.138523 33:-10.087629 34:8.5221481 35:-10.119223 36:-8.5408964 37:10.150501 38:10.282433 39:6.9674196 40:9.076355 41:-8.2874937 42:-8.6005306 43:-8.4513464 44:-5.7804518 45:9.6539955 46:-8.1778212 47:-10.149351 48:-10.04895 49:9.9412327 50:-9.1178646 51:9.413929 52:9.8904686 53:-9.5864697 54:8.6123514 55:-4.6100445 56:9.6567917 57:-7.6740947 58:-9.499506 59:-8.6907959 60:8.4585505 #
-0.00024010337909037612 1:8.5783482 2:-8.3971825 3:8.6384153 4:8.6887493 5:-8.2209864 6:8.4504385 7:-8.3288355 8:8.2875967 9:6.6333184 10:-8.3132811 11:8.5260172 12:-8.2086496 13:-9.2965069 14:9.3073711 15:-8.2403088 16:0 17:9.3453321 18:9.9159985 19:-9.6452837 20:8.4072189 21:9.6367149 22:5.2486935 23:8.3257399 24:8.4941835 25:-8.6096888 26:8.5295601 27:-9.3276443 28:-10.137912 29:-8.4282141 30:-8.3939009 31:9.2873774 32:9.3600931 33:-8.1686907 34:9.9081163 35:-9.667408 36:-8.335639 37:-9.1343346 38:9.3241224 39:10.116639 40:9.6297331 41:-9.923234 42:-8.2403593 43:-9.3071012 44:-10.053138 45:-9.6417971 46:10.096364 47:-8.2936058 48:9.6078701 49:-9.6470175 50:10.490465 51:-10.127879 52:-4.5986977 53:8.3102503 54:-8.3434343 55:-10.302545 56:9.6080723 57:-5.903316 58:-8.0885992 59:-9.9174595 60:8.490715 #
0.00024010337909037612 1:-7.2399998 2:-5.52 3:-0.47 4:-0.51999998 5:-2.24 6:2.8 7:2.96 8:-3.4100001 9:15.05 10:-3.9400001 11:-0.75999999 12:11.43 13:-4.7800002 14:-2.8599999 15:0.50999999 16:-1.34 17:5.6300001 18:-0.2 19:3.3299999 20:3.6400001 21:-0.46000001 22:-8.0299997 23:-0.14 24:-14.92 25:2.98 26:1.98 27:2.9000001 28:1.8 29:-1.58 30:-2.53 31:0.75999999 34:-4.8800001 35:15.85 36:3.1300001 37:17.370001 38:5.1100001 39:9.3299999 40:15.66 42:-4.04 43:11.52 44:-9.7700005 45:-21.18 46:-12.26 47:-0.090000004 48:5.4099998 49:4.04 50:-1.26 51:2.3099999 52:-2.26 53:-10.78 54:-17.74 55:16 56:-16.690001 57:17.07 58:-16.9 59:-11.78 60:7.9200001 #
0.00024010337909037612 1:8.5995083 2:-10.106889 3:4.6051702 4:6.7452364 5:-8.3566341 6:10.131206 7:6.6333184 8:9.080246 9:-10.141212 10:-8.593318 11:9.0187531 12:-9.0152378 13:-8.5003967 14:-10.202791 15:9.094244 16:10.211781 17:8.5700817 18:-9.0954838 19:9.659359 20:8.3858433 21:10.147135 22:8.1583967 23:8.117074 24:9.0070782 25:-10.156991 26:-8.1743412 27:8.3411474 28:10.206402 29:9.5082283 30:-10.125309 31:9.9520044 32:10.145195 33:-10.155434 34:-9.0490322 35:-8.1015406 36:-10.17487 37:5.7561502 38:-8.6532631 39:9.0187511 40:-9.5526056 41:-9.5975475 42:-8.3176003 43:-8.3061161 44:10.157904 45:8.9995432 46:-9.5516949 47:-9.0726986 48:8.2257271 49:-9.0954103 50:10.112412 51:-10.220727 52:10.184973 53:9.0679636 54:-9.007761 55:9.189353 56:-9.0718288 57:-9.989995 58:5.789578 59:-8.2159834 60:8.5720835 #
0.00024010337909037612 1:-3.48 2:4.9899998 3:-8.21 4:2.0799999 5:-4.54 6:-10.77 7:7.0999999 8:4.1999998 9:-5.7800002 10:-8.7700005 11:10.77 12:-4.3899999 13:-13.34 14:6.5999999 15:-1.36 16:2.6600001 17:7.3000002 18:12.27 19:10.76 20:0.17 21:-3.51 22:-5.29 23:4.1599998 24:-3.1600001 25:-0.31 26:3.6400001 27:-0.02 28:10.69 29:-9.8500004 30:11.67 31:-7.5599999 32:-4.5799999 33:2.7 34:-4.8400002 35:-4.29 36:4.75 37:-10.88 38:-2.98 39:7.25 40:-6 41:1.9 42:-5.6399999 43:4.8200002 44:8.3400002 45:6 46:2.47 47:-2.04 48:5.1599998 49:-1.45 50:9.4399996 51:-3.04 52:-11.32 53:-7 54:-7.7199998 55:6 56:4.4099998 58:2 59:-1.9299999 60:6.4400001 #
0.00024010337909037612 1:-1.91 2:1.0599999 3:-0.27000001 4:2.3599999 5:0.94 6:-0.64999998 7:2.02 8:0.16 9:-0.98000002 10:3.71 11:-11.14 12:-3.8900001 13:1.6900001 14:0 15:-0.81 16:1.89 17:-3.55 18:0 19:0 20:-1.1 21:1.5 22:3.24 23:-9.0200005 24:2.4300001 25:-3.22 26:-4.6799998 27:-1.49 28:-0.36000001 29:-3.24 30:-0.73000002 31:8.3000002 32:-4.8200002 33:5.9099998 34:-5.2399998 35:5 36:0 37:0 38:-8.4099998 39:0 40:0 41:0 42:-1.63 43:-3.3699999 44:3.75 45:0 46:1.55 47:4.3499999 48:-1.88 49:4.8400002 50:0 51:10.8 52:0 53:0.97000003 54:-6.02 55:-5.3800001 56:-1.84 57:0 58:8.4099998 59:0 60:3.3299999 #
0.00024010337909037612 1:-1.8200001 2:1.5700001 3:0.02 4:2.05 5:1.3 6:0.079999998 7:1.3099999 8:-0.51999998 9:-1.0599999 10:3.6300001 11:-11.28 12:-3.48 13:1.8 14:0 15:-0.44999999 16:2.0899999 17:-4.02 18:0 19:0 20:-0.56 21:1.86 22:3.0599999 23:-9.1999998 24:2.3800001 25:-2.8800001 26:-4.8000002 27:-1.3 28:-0.23 29:-3.0799999 30:-1.01 31:9.0500002 32:-4.3800001 33:5.6300001 34:-4.6999998 35:5.3299999 36:0 37:0 38:-8.4099998 39:0 40:0 41:0 42:-1.22 43:-2.95 44:4.1999998 45:0 46:1.4299999 47:3.8399999 48:-1.75 49:5.3600001 50:0 51:10.65 52:0 53:1.34 54:-5.6999998 55:-5.6900001 56:-1.79 57:0 58:8.46 59:0 60:3.0999999 #
-0.00024010337909037612 1:-2.3800001 2:1.71 3:0.40000001 4:2.05 5:-0.63 6:1 7:-0.039999999 8:1.73 9:-0.94999999 10:11.03 11:-0.77999997 12:-20.58 13:0.57999998 14:0.75 15:1.17 16:-2.1300001 17:9 18:-15.89 19:24.43 20:-8.9700003 21:0.15000001 23:-2.78 24:-8.0500002 25:-5.9499998 26:3.6600001 27:-3.5999999 28:-1.21 29:-0.02 30:0 31:-25.26 32:16.83 33:4.2399998 34:-3.6700001 35:8.1300001 36:2.9300001 37:25.98 38:-29.459999 40:12.55 42:0.28999999 43:-10.91 44:8.0900002 45:-23.969999 46:-8.2299995 47:-9.5699997 48:6.7199998 49:24.24 50:26.98 51:-26.530001 52:9.1400003 53:27.48 54:-9.9499998 #
-0.00024010337909037612 1:6.6333184 2:6.5071096 3:-8.2978725 4:-8.3858433 5:6.7936416 6:8.3766785 7:6.6449466 8:-9.1918497 9:8.428318 10:8.5249901 11:9.5485983 12:-9.1954279 13:8.3264847 14:9.1114645 15:-9.527812 16:-8.3271084 17:8.3770046 18:-9.0715542 19:9.3031778 20:-8.5151567 21:8.4513664 22:9.2530575 23:-8.4391451 24:8.4986439 25:6.5712829 26:-8.2307978 27:-6.1568861 28:10.663945 29:-9.1590605 30:-4.2530937 31:9.1191959 32:9.0553875 33:8.5399466 34:5.5158935 35:-9.1560144 36:-8.443573 37:-8.408 38:8.7346115 39:9.0990381 40:9.0194454 41:-6.610858 42:8.3963013 43:-9.1375494 44:9.2647228 45:10.495186 46:-9.0106335 47:-8.1431046 48:-8.2623291 49:-8.5778046 50:9.2754021 51:9.0781288 52:-9.1453829 53:-9.2260437 54:-9.0905037 55:-10.639192 56:-4.9316483 57:-9.6097832 58:10.627057 59:-8.338728 60:-8.3561354 #
0.00024010337909037612 1:-8.1894302 2:8.5052843 3:-8.2119293 4:8.6887493 5:8.4539957 6:7.0801892 7:-7.4596186 8:8.5585032 9:6.6333184 10:-6.2270641 11:6.81775 12:-9.5951023 13:-8.4601355 14:-9.1920109 15:-8.1236181 16:0 17:-7.0764146 18:-8.3629513 19:-10.442874 20:8.6531534 21:5.8308773 22:7.1197624 23:8.552187 24:-9.0856533 25:-4.097775 26:8.5814791 27:-9.9813671 28:9.6067438 29:8.6793966 30:8.5076857 31:-8.6539011 32:8.4887018 33:-8.5963774 34:9.9452877 35:-9.6955576 36:-9.9882593 37:9.6795053 38:9.9189987 39:8.5173283 40:9.5481529 41:-9.1170778 42:-8.2330561 43:-9.937335 44:9.9617462 45:10.295482 46:7.2818484 47:-7.231926 48:-8.1897221 49:-9.1731291 50:-6.3261757 51:-10.63028 52:-9.8711205 53:8.2325363 54:9.6767006 55:-9.521594 56:8.4155731 57:-9.8124914 58:10.417599 59:-5.6231513 60:6.2497196 #
-0.00021483161665418796 1:-8.300806 2:-5.9673986 3:-8.3858433 4:-7.1456141 5:-6.0911331 6:6.9148631 7:-10.310075 8:8.6128654 9:6.6333184 10:8.3790426 11:6.5712829 12:7.1087332 13:-10.689419 14:10.691283 15:-9.0934505 16:-9.1037693 17:-10.132741 18:9.6701784 19:10.722342 20:6.9753823 21:-5.5782762 22:9.2466326 23:9.1748981 24:9.1922855 25:10.314815 26:-10.063214 27:10.098867 28:10.316502 29:9.255208 30:-5.8062177 31:-8.6769447 32:10.297836 33:-10.085482 34:9.2863379 35:-9.276125 36:-8.4893665 37:-9.700984 38:10.689313 39:-10.277933 40:9.3090611 41:-10.126602 42:-10.108851 43:-9.1514177 44:6.5086117 45:9.6115532 46:8.2111959 47:10.117587 48:-10.692104 49:-9.5777025 50:-10.290016 51:-8.1602287 52:-10.313673 53:-6.0180321 54:9.2585154 55:9.6357193 56:7.0902352 57:-9.2891035 58:6.0520892 59:9.5804262 60:-5.4344225 #
-0.00024010337909037612 1:6.6333184 2:-8.3913031 3:8.3670273 4:8.2014723 5:8.7938299 6:-9.4827805 7:-10.12392 8:8.3858433 9:8.6415625 10:8.445034 11:8.4983444 12:-10.124047 13:6.6190472 14:9.5417128 15:8.5756273 16:8.4272051 17:-9.4796381 18:10.122639 19:-10.310302 20:10.14414 21:-8.360074 22:9.6461611 23:9.1664562 24:8.4065228 25:-9.5556355 26:-10.097661 27:-8.623023 28:10.324987 29:9.5906153 30:-8.1832457 31:9.0308638 32:9.0832033 33:-8.3825054 34:10.125641 35:-10.140782 36:-8.1858978 37:-9.0872326 38:9.7028704 39:-7.9687934 40:-9.8263798 41:-8.3606157 42:-8.4603348 43:-10.317897 44:10.308031 45:9.7269115 46:10.135858 47:-9.5037737 48:-10.148125 49:-8.1785803 50:-8.6800413 51:-8.4019165 52:-9.0677805 53:-9.577323 54:-10.079242 55:10.143232 56:-10.323175 57:-9.4841356 58:-7.2106338 59:-8.027256 60:10.093968 #
